MTP
version = 1.1.0
potential_name = MTP1m
scaling = 1.509493825497040e-02
species_count = 2
potential_tag = 
radial_basis_type = RBChebyshev
	min_dist = 4.196066216786145e-01
	max_dist = 5.000000000000000e+00
	radial_basis_size = 8
	radial_funcs_count = 4
	radial_coeffs
		0-0
			{-2.158993173008098e-01, 5.315857024671393e-01, -4.109748531285582e-01, 3.315060370695935e-01, -2.052706637114840e-01, 1.273554255526695e-01, -5.278472252875518e-02, 1.406573451720986e-02}
			{3.080855761788461e-02, 3.562048729847260e-01, -9.411424604025413e-02, 2.223526954427805e-01, -4.750472061427662e-02, 8.235313362609510e-02, -1.093248220490982e-02, 1.578861650634453e-02}
			{-1.360608078458940e-01, -2.625712664299211e-01, -2.185370320399342e-01, 1.077768975911029e-01, -2.523931361755967e-01, 1.225651674483925e-01, -5.957756543324715e-02, 1.612396375365693e-02}
			{-3.563856898960238e-01, -2.701136179967459e-01, -2.423596101500862e-01, -1.049946323022601e-01, -1.653583052019900e-01, 1.051261527789514e-02, -3.755710522142015e-02, -5.593737536050108e-03}
		0-1
			{1.011214321530652e-01, -4.236146467240508e-02, 9.652496107898541e-02, 2.007550754620128e-02, 2.054228974640315e-02, 3.177496528607472e-03, 3.936173211153997e-03, 3.998676067311889e-04}
			{1.691127186021786e-01, -2.085940715542956e-01, 2.997612909064864e-01, -1.113944602240608e-01, 1.187746319425544e-01, -2.169413731617494e-02, 8.654964516618917e-03, 5.446712249117063e-03}
			{-1.703543062677849e-01, -5.160652090360200e-01, -2.059722727057197e-01, -2.450076355045726e-01, -9.780117607781395e-02, -6.549004502021613e-02, -8.451007812480014e-03, -3.521758902847055e-02}
			{7.755748619124092e-02, -9.998765367967272e-02, -8.677778246025937e-02, 4.314675255091498e-02, -3.774922686286601e-02, 9.606599498090483e-02, -1.813005744386752e-02, 4.484841551716164e-02}
		1-0
			{2.009865578380665e-01, 1.773302434677842e-01, 1.493909435241152e-01, 1.402816695583134e-01, 7.148457951799414e-02, 5.021581017856568e-02, 2.144200544073046e-02, 1.803668550883445e-02}
			{-7.460012461677190e-02, -1.034991851592970e-01, -4.179171846394226e-02, -5.827565813117103e-02, -3.649983758670475e-02, 2.247159743531154e-02, -3.578963967821289e-02, 1.499444551756239e-02}
			{-2.984043700519176e-02, -3.750963231252645e-01, 1.976783870980064e-01, -3.799305718376885e-01, 5.928891800447563e-02, -5.308890195938926e-02, -3.718293784387437e-02, 1.885021047323167e-02}
			{5.761798865987542e-02, 2.420555915630299e-01, -2.053873370761826e-01, 2.532425191744851e-01, -2.146561658409433e-01, 5.370082563380209e-02, -2.302886472754321e-03, -3.115134887911712e-02}
		1-1
			{1.171562419515460e-01, -2.360819291844687e-01, 2.598690687926252e-01, -1.794420077114816e-01, 1.150835521734948e-01, -5.593450892371078e-02, 2.010066188118818e-02, -1.601951848189473e-02}
			{-1.586133877273697e-01, 5.136625407108136e-01, -3.325972832372545e-01, 3.720720576744529e-01, -1.582100529016759e-01, 1.552126803471996e-01, -4.014048239686663e-02, 4.292959574903714e-02}
			{5.065082656566208e-02, -6.334875784593264e-02, -1.569138734469616e-02, -2.926835481816328e-03, 1.148345959789821e-01, -2.578156403664444e-02, 2.069062387902446e-02, 5.895976798621801e-02}
			{-3.868912431026557e-01, 3.264488836842889e-01, -1.682475207833742e-01, -2.133209768493157e-01, 2.459997474907162e-01, -2.203558735203802e-01, 7.361447662520110e-02, -1.580957066408766e-02}
alpha_moments_count = 350
alpha_index_basic_count = 130
alpha_index_basic = {{0, 0, 0, 0}, {0, 1, 0, 0}, {0, 0, 1, 0}, {0, 0, 0, 1}, {0, 2, 0, 0}, {0, 1, 1, 0}, {0, 1, 0, 1}, {0, 0, 2, 0}, {0, 0, 1, 1}, {0, 0, 0, 2}, {0, 3, 0, 0}, {0, 2, 1, 0}, {0, 2, 0, 1}, {0, 1, 2, 0}, {0, 1, 1, 1}, {0, 1, 0, 2}, {0, 0, 3, 0}, {0, 0, 2, 1}, {0, 0, 1, 2}, {0, 0, 0, 3}, {0, 4, 0, 0}, {0, 3, 1, 0}, {0, 3, 0, 1}, {0, 2, 2, 0}, {0, 2, 1, 1}, {0, 2, 0, 2}, {0, 1, 3, 0}, {0, 1, 2, 1}, {0, 1, 1, 2}, {0, 1, 0, 3}, {0, 0, 4, 0}, {0, 0, 3, 1}, {0, 0, 2, 2}, {0, 0, 1, 3}, {0, 0, 0, 4}, {0, 5, 0, 0}, {0, 4, 1, 0}, {0, 4, 0, 1}, {0, 3, 2, 0}, {0, 3, 1, 1}, {0, 3, 0, 2}, {0, 2, 3, 0}, {0, 2, 2, 1}, {0, 2, 1, 2}, {0, 2, 0, 3}, {0, 1, 4, 0}, {0, 1, 3, 1}, {0, 1, 2, 2}, {0, 1, 1, 3}, {0, 1, 0, 4}, {0, 0, 5, 0}, {0, 0, 4, 1}, {0, 0, 3, 2}, {0, 0, 2, 3}, {0, 0, 1, 4}, {0, 0, 0, 5}, {0, 6, 0, 0}, {0, 5, 1, 0}, {0, 5, 0, 1}, {0, 4, 2, 0}, {0, 4, 1, 1}, {0, 4, 0, 2}, {0, 3, 3, 0}, {0, 3, 2, 1}, {0, 3, 1, 2}, {0, 3, 0, 3}, {0, 2, 4, 0}, {0, 2, 3, 1}, {0, 2, 2, 2}, {0, 2, 1, 3}, {0, 2, 0, 4}, {0, 1, 5, 0}, {0, 1, 4, 1}, {0, 1, 3, 2}, {0, 1, 2, 3}, {0, 1, 1, 4}, {0, 1, 0, 5}, {0, 0, 6, 0}, {0, 0, 5, 1}, {0, 0, 4, 2}, {0, 0, 3, 3}, {0, 0, 2, 4}, {0, 0, 1, 5}, {0, 0, 0, 6}, {1, 0, 0, 0}, {1, 1, 0, 0}, {1, 0, 1, 0}, {1, 0, 0, 1}, {1, 2, 0, 0}, {1, 1, 1, 0}, {1, 1, 0, 1}, {1, 0, 2, 0}, {1, 0, 1, 1}, {1, 0, 0, 2}, {1, 3, 0, 0}, {1, 2, 1, 0}, {1, 2, 0, 1}, {1, 1, 2, 0}, {1, 1, 1, 1}, {1, 1, 0, 2}, {1, 0, 3, 0}, {1, 0, 2, 1}, {1, 0, 1, 2}, {1, 0, 0, 3}, {1, 4, 0, 0}, {1, 3, 1, 0}, {1, 3, 0, 1}, {1, 2, 2, 0}, {1, 2, 1, 1}, {1, 2, 0, 2}, {1, 1, 3, 0}, {1, 1, 2, 1}, {1, 1, 1, 2}, {1, 1, 0, 3}, {1, 0, 4, 0}, {1, 0, 3, 1}, {1, 0, 2, 2}, {1, 0, 1, 3}, {1, 0, 0, 4}, {2, 0, 0, 0}, {2, 1, 0, 0}, {2, 0, 1, 0}, {2, 0, 0, 1}, {2, 2, 0, 0}, {2, 1, 1, 0}, {2, 1, 0, 1}, {2, 0, 2, 0}, {2, 0, 1, 1}, {2, 0, 0, 2}, {3, 0, 0, 0}}
alpha_index_times_count = 969
alpha_index_times = {{0, 0, 1, 130}, {1, 1, 1, 131}, {2, 2, 1, 131}, {3, 3, 1, 131}, {1, 4, 1, 132}, {2, 5, 1, 132}, {3, 6, 1, 132}, {1, 5, 1, 133}, {2, 7, 1, 133}, {3, 8, 1, 133}, {1, 6, 1, 134}, {2, 8, 1, 134}, {3, 9, 1, 134}, {1, 10, 1, 135}, {2, 11, 1, 135}, {3, 12, 1, 135}, {1, 11, 1, 136}, {2, 13, 1, 136}, {3, 14, 1, 136}, {1, 12, 1, 137}, {2, 14, 1, 137}, {3, 15, 1, 137}, {1, 13, 1, 138}, {2, 16, 1, 138}, {3, 17, 1, 138}, {1, 14, 1, 139}, {2, 17, 1, 139}, {3, 18, 1, 139}, {1, 15, 1, 140}, {2, 18, 1, 140}, {3, 19, 1, 140}, {4, 4, 1, 141}, {5, 5, 1, 141}, {6, 6, 1, 141}, {4, 5, 1, 142}, {5, 7, 1, 142}, {6, 8, 1, 142}, {4, 6, 1, 143}, {5, 8, 1, 143}, {6, 9, 1, 143}, {5, 5, 1, 144}, {7, 7, 1, 144}, {8, 8, 1, 144}, {5, 6, 1, 145}, {7, 8, 1, 145}, {8, 9, 1, 145}, {6, 6, 1, 146}, {8, 8, 1, 146}, {9, 9, 1, 146}, {4, 10, 1, 147}, {5, 11, 1, 147}, {6, 12, 1, 147}, {4, 11, 1, 148}, {5, 13, 1, 148}, {6, 14, 1, 148}, {4, 12, 1, 149}, {5, 14, 1, 149}, {6, 15, 1, 149}, {4, 13, 1, 150}, {5, 16, 1, 150}, {6, 17, 1, 150}, {4, 14, 1, 151}, {5, 17, 1, 151}, {6, 18, 1, 151}, {4, 15, 1, 152}, {5, 18, 1, 152}, {6, 19, 1, 152}, {5, 10, 1, 153}, {7, 11, 1, 153}, {8, 12, 1, 153}, {5, 11, 1, 154}, {7, 13, 1, 154}, {8, 14, 1, 154}, {5, 12, 1, 155}, {7, 14, 1, 155}, {8, 15, 1, 155}, {5, 13, 1, 156}, {7, 16, 1, 156}, {8, 17, 1, 156}, {5, 14, 1, 157}, {7, 17, 1, 157}, {8, 18, 1, 157}, {5, 15, 1, 158}, {7, 18, 1, 158}, {8, 19, 1, 158}, {6, 10, 1, 159}, {8, 11, 1, 159}, {9, 12, 1, 159}, {6, 11, 1, 160}, {8, 13, 1, 160}, {9, 14, 1, 160}, {6, 12, 1, 161}, {8, 14, 1, 161}, {9, 15, 1, 161}, {6, 13, 1, 162}, {8, 16, 1, 162}, {9, 17, 1, 162}, {6, 14, 1, 163}, {8, 17, 1, 163}, {9, 18, 1, 163}, {6, 15, 1, 164}, {8, 18, 1, 164}, {9, 19, 1, 164}, {4, 4, 1, 165}, {5, 5, 2, 165}, {6, 6, 2, 165}, {7, 7, 1, 165}, {8, 8, 2, 165}, {9, 9, 1, 165}, {4, 10, 1, 166}, {5, 11, 2, 166}, {6, 12, 2, 166}, {7, 13, 1, 166}, {8, 14, 2, 166}, {9, 15, 1, 166}, {4, 11, 1, 167}, {5, 13, 2, 167}, {6, 14, 2, 167}, {7, 16, 1, 167}, {8, 17, 2, 167}, {9, 18, 1, 167}, {4, 12, 1, 168}, {5, 14, 2, 168}, {6, 15, 2, 168}, {7, 17, 1, 168}, {8, 18, 2, 168}, {9, 19, 1, 168}, {4, 20, 1, 169}, {5, 21, 2, 169}, {6, 22, 2, 169}, {7, 23, 1, 169}, {8, 24, 2, 169}, {9, 25, 1, 169}, {4, 21, 1, 170}, {5, 23, 2, 170}, {6, 24, 2, 170}, {7, 26, 1, 170}, {8, 27, 2, 170}, {9, 28, 1, 170}, {4, 22, 1, 171}, {5, 24, 2, 171}, {6, 25, 2, 171}, {7, 27, 1, 171}, {8, 28, 2, 171}, {9, 29, 1, 171}, {4, 23, 1, 172}, {5, 26, 2, 172}, {6, 27, 2, 172}, {7, 30, 1, 172}, {8, 31, 2, 172}, {9, 32, 1, 172}, {4, 24, 1, 173}, {5, 27, 2, 173}, {6, 28, 2, 173}, {7, 31, 1, 173}, {8, 32, 2, 173}, {9, 33, 1, 173}, {4, 25, 1, 174}, {5, 28, 2, 174}, {6, 29, 2, 174}, {7, 32, 1, 174}, {8, 33, 2, 174}, {9, 34, 1, 174}, {10, 10, 1, 175}, {11, 11, 2, 175}, {12, 12, 2, 175}, {13, 13, 1, 175}, {14, 14, 2, 175}, {15, 15, 1, 175}, {10, 11, 1, 176}, {11, 13, 2, 176}, {12, 14, 2, 176}, {13, 16, 1, 176}, {14, 17, 2, 176}, {15, 18, 1, 176}, {10, 12, 1, 177}, {11, 14, 2, 177}, {12, 15, 2, 177}, {13, 17, 1, 177}, {14, 18, 2, 177}, {15, 19, 1, 177}, {11, 11, 1, 178}, {13, 13, 2, 178}, {14, 14, 2, 178}, {16, 16, 1, 178}, {17, 17, 2, 178}, {18, 18, 1, 178}, {11, 12, 1, 179}, {13, 14, 2, 179}, {14, 15, 2, 179}, {16, 17, 1, 179}, {17, 18, 2, 179}, {18, 19, 1, 179}, {12, 12, 1, 180}, {14, 14, 2, 180}, {15, 15, 2, 180}, {17, 17, 1, 180}, {18, 18, 2, 180}, {19, 19, 1, 180}, {10, 20, 1, 181}, {11, 21, 2, 181}, {12, 22, 2, 181}, {13, 23, 1, 181}, {14, 24, 2, 181}, {15, 25, 1, 181}, {10, 21, 1, 182}, {11, 23, 2, 182}, {12, 24, 2, 182}, {13, 26, 1, 182}, {14, 27, 2, 182}, {15, 28, 1, 182}, {10, 22, 1, 183}, {11, 24, 2, 183}, {12, 25, 2, 183}, {13, 27, 1, 183}, {14, 28, 2, 183}, {15, 29, 1, 183}, {10, 23, 1, 184}, {11, 26, 2, 184}, {12, 27, 2, 184}, {13, 30, 1, 184}, {14, 31, 2, 184}, {15, 32, 1, 184}, {10, 24, 1, 185}, {11, 27, 2, 185}, {12, 28, 2, 185}, {13, 31, 1, 185}, {14, 32, 2, 185}, {15, 33, 1, 185}, {10, 25, 1, 186}, {11, 28, 2, 186}, {12, 29, 2, 186}, {13, 32, 1, 186}, {14, 33, 2, 186}, {15, 34, 1, 186}, {11, 20, 1, 187}, {13, 21, 2, 187}, {14, 22, 2, 187}, {16, 23, 1, 187}, {17, 24, 2, 187}, {18, 25, 1, 187}, {11, 21, 1, 188}, {13, 23, 2, 188}, {14, 24, 2, 188}, {16, 26, 1, 188}, {17, 27, 2, 188}, {18, 28, 1, 188}, {11, 22, 1, 189}, {13, 24, 2, 189}, {14, 25, 2, 189}, {16, 27, 1, 189}, {17, 28, 2, 189}, {18, 29, 1, 189}, {11, 23, 1, 190}, {13, 26, 2, 190}, {14, 27, 2, 190}, {16, 30, 1, 190}, {17, 31, 2, 190}, {18, 32, 1, 190}, {11, 24, 1, 191}, {13, 27, 2, 191}, {14, 28, 2, 191}, {16, 31, 1, 191}, {17, 32, 2, 191}, {18, 33, 1, 191}, {11, 25, 1, 192}, {13, 28, 2, 192}, {14, 29, 2, 192}, {16, 32, 1, 192}, {17, 33, 2, 192}, {18, 34, 1, 192}, {12, 20, 1, 193}, {14, 21, 2, 193}, {15, 22, 2, 193}, {17, 23, 1, 193}, {18, 24, 2, 193}, {19, 25, 1, 193}, {12, 21, 1, 194}, {14, 23, 2, 194}, {15, 24, 2, 194}, {17, 26, 1, 194}, {18, 27, 2, 194}, {19, 28, 1, 194}, {12, 22, 1, 195}, {14, 24, 2, 195}, {15, 25, 2, 195}, {17, 27, 1, 195}, {18, 28, 2, 195}, {19, 29, 1, 195}, {12, 23, 1, 196}, {14, 26, 2, 196}, {15, 27, 2, 196}, {17, 30, 1, 196}, {18, 31, 2, 196}, {19, 32, 1, 196}, {12, 24, 1, 197}, {14, 27, 2, 197}, {15, 28, 2, 197}, {17, 31, 1, 197}, {18, 32, 2, 197}, {19, 33, 1, 197}, {12, 25, 1, 198}, {14, 28, 2, 198}, {15, 29, 2, 198}, {17, 32, 1, 198}, {18, 33, 2, 198}, {19, 34, 1, 198}, {10, 10, 1, 199}, {11, 11, 3, 199}, {12, 12, 3, 199}, {13, 13, 3, 199}, {14, 14, 6, 199}, {15, 15, 3, 199}, {16, 16, 1, 199}, {17, 17, 3, 199}, {18, 18, 3, 199}, {19, 19, 1, 199}, {10, 20, 1, 200}, {11, 21, 3, 200}, {12, 22, 3, 200}, {13, 23, 3, 200}, {14, 24, 6, 200}, {15, 25, 3, 200}, {16, 26, 1, 200}, {17, 27, 3, 200}, {18, 28, 3, 200}, {19, 29, 1, 200}, {10, 21, 1, 201}, {11, 23, 3, 201}, {12, 24, 3, 201}, {13, 26, 3, 201}, {14, 27, 6, 201}, {15, 28, 3, 201}, {16, 30, 1, 201}, {17, 31, 3, 201}, {18, 32, 3, 201}, {19, 33, 1, 201}, {10, 22, 1, 202}, {11, 24, 3, 202}, {12, 25, 3, 202}, {13, 27, 3, 202}, {14, 28, 6, 202}, {15, 29, 3, 202}, {16, 31, 1, 202}, {17, 32, 3, 202}, {18, 33, 3, 202}, {19, 34, 1, 202}, {10, 35, 1, 203}, {11, 36, 3, 203}, {12, 37, 3, 203}, {13, 38, 3, 203}, {14, 39, 6, 203}, {15, 40, 3, 203}, {16, 41, 1, 203}, {17, 42, 3, 203}, {18, 43, 3, 203}, {19, 44, 1, 203}, {10, 36, 1, 204}, {11, 38, 3, 204}, {12, 39, 3, 204}, {13, 41, 3, 204}, {14, 42, 6, 204}, {15, 43, 3, 204}, {16, 45, 1, 204}, {17, 46, 3, 204}, {18, 47, 3, 204}, {19, 48, 1, 204}, {10, 37, 1, 205}, {11, 39, 3, 205}, {12, 40, 3, 205}, {13, 42, 3, 205}, {14, 43, 6, 205}, {15, 44, 3, 205}, {16, 46, 1, 205}, {17, 47, 3, 205}, {18, 48, 3, 205}, {19, 49, 1, 205}, {10, 38, 1, 206}, {11, 41, 3, 206}, {12, 42, 3, 206}, {13, 45, 3, 206}, {14, 46, 6, 206}, {15, 47, 3, 206}, {16, 50, 1, 206}, {17, 51, 3, 206}, {18, 52, 3, 206}, {19, 53, 1, 206}, {10, 39, 1, 207}, {11, 42, 3, 207}, {12, 43, 3, 207}, {13, 46, 3, 207}, {14, 47, 6, 207}, {15, 48, 3, 207}, {16, 51, 1, 207}, {17, 52, 3, 207}, {18, 53, 3, 207}, {19, 54, 1, 207}, {10, 40, 1, 208}, {11, 43, 3, 208}, {12, 44, 3, 208}, {13, 47, 3, 208}, {14, 48, 6, 208}, {15, 49, 3, 208}, {16, 52, 1, 208}, {17, 53, 3, 208}, {18, 54, 3, 208}, {19, 55, 1, 208}, {20, 20, 1, 209}, {21, 21, 3, 209}, {22, 22, 3, 209}, {23, 23, 3, 209}, {24, 24, 6, 209}, {25, 25, 3, 209}, {26, 26, 1, 209}, {27, 27, 3, 209}, {28, 28, 3, 209}, {29, 29, 1, 209}, {20, 21, 1, 210}, {21, 23, 3, 210}, {22, 24, 3, 210}, {23, 26, 3, 210}, {24, 27, 6, 210}, {25, 28, 3, 210}, {26, 30, 1, 210}, {27, 31, 3, 210}, {28, 32, 3, 210}, {29, 33, 1, 210}, {20, 22, 1, 211}, {21, 24, 3, 211}, {22, 25, 3, 211}, {23, 27, 3, 211}, {24, 28, 6, 211}, {25, 29, 3, 211}, {26, 31, 1, 211}, {27, 32, 3, 211}, {28, 33, 3, 211}, {29, 34, 1, 211}, {21, 21, 1, 212}, {23, 23, 3, 212}, {24, 24, 3, 212}, {26, 26, 3, 212}, {27, 27, 6, 212}, {28, 28, 3, 212}, {30, 30, 1, 212}, {31, 31, 3, 212}, {32, 32, 3, 212}, {33, 33, 1, 212}, {21, 22, 1, 213}, {23, 24, 3, 213}, {24, 25, 3, 213}, {26, 27, 3, 213}, {27, 28, 6, 213}, {28, 29, 3, 213}, {30, 31, 1, 213}, {31, 32, 3, 213}, {32, 33, 3, 213}, {33, 34, 1, 213}, {22, 22, 1, 214}, {24, 24, 3, 214}, {25, 25, 3, 214}, {27, 27, 3, 214}, {28, 28, 6, 214}, {29, 29, 3, 214}, {31, 31, 1, 214}, {32, 32, 3, 214}, {33, 33, 3, 214}, {34, 34, 1, 214}, {20, 20, 1, 215}, {21, 21, 4, 215}, {22, 22, 4, 215}, {23, 23, 6, 215}, {24, 24, 12, 215}, {25, 25, 6, 215}, {26, 26, 4, 215}, {27, 27, 12, 215}, {28, 28, 12, 215}, {29, 29, 4, 215}, {30, 30, 1, 215}, {31, 31, 4, 215}, {32, 32, 6, 215}, {33, 33, 4, 215}, {34, 34, 1, 215}, {20, 35, 1, 216}, {21, 36, 4, 216}, {22, 37, 4, 216}, {23, 38, 6, 216}, {24, 39, 12, 216}, {25, 40, 6, 216}, {26, 41, 4, 216}, {27, 42, 12, 216}, {28, 43, 12, 216}, {29, 44, 4, 216}, {30, 45, 1, 216}, {31, 46, 4, 216}, {32, 47, 6, 216}, {33, 48, 4, 216}, {34, 49, 1, 216}, {20, 36, 1, 217}, {21, 38, 4, 217}, {22, 39, 4, 217}, {23, 41, 6, 217}, {24, 42, 12, 217}, {25, 43, 6, 217}, {26, 45, 4, 217}, {27, 46, 12, 217}, {28, 47, 12, 217}, {29, 48, 4, 217}, {30, 50, 1, 217}, {31, 51, 4, 217}, {32, 52, 6, 217}, {33, 53, 4, 217}, {34, 54, 1, 217}, {20, 37, 1, 218}, {21, 39, 4, 218}, {22, 40, 4, 218}, {23, 42, 6, 218}, {24, 43, 12, 218}, {25, 44, 6, 218}, {26, 46, 4, 218}, {27, 47, 12, 218}, {28, 48, 12, 218}, {29, 49, 4, 218}, {30, 51, 1, 218}, {31, 52, 4, 218}, {32, 53, 6, 218}, {33, 54, 4, 218}, {34, 55, 1, 218}, {35, 35, 1, 219}, {36, 36, 5, 219}, {37, 37, 5, 219}, {38, 38, 10, 219}, {39, 39, 20, 219}, {40, 40, 10, 219}, {41, 41, 10, 219}, {42, 42, 30, 219}, {43, 43, 30, 219}, {44, 44, 10, 219}, {45, 45, 5, 219}, {46, 46, 20, 219}, {47, 47, 30, 219}, {48, 48, 20, 219}, {49, 49, 5, 219}, {50, 50, 1, 219}, {51, 51, 5, 219}, {52, 52, 10, 219}, {53, 53, 10, 219}, {54, 54, 5, 219}, {55, 55, 1, 219}, {56, 56, 1, 220}, {57, 57, 6, 220}, {58, 58, 6, 220}, {59, 59, 15, 220}, {60, 60, 30, 220}, {61, 61, 15, 220}, {62, 62, 20, 220}, {63, 63, 60, 220}, {64, 64, 60, 220}, {65, 65, 20, 220}, {66, 66, 15, 220}, {67, 67, 60, 220}, {68, 68, 90, 220}, {69, 69, 60, 220}, {70, 70, 15, 220}, {71, 71, 6, 220}, {72, 72, 30, 220}, {73, 73, 60, 220}, {74, 74, 60, 220}, {75, 75, 30, 220}, {76, 76, 6, 220}, {77, 77, 1, 220}, {78, 78, 6, 220}, {79, 79, 15, 220}, {80, 80, 20, 220}, {81, 81, 15, 220}, {82, 82, 6, 220}, {83, 83, 1, 220}, {0, 84, 1, 221}, {1, 85, 1, 222}, {2, 86, 1, 222}, {3, 87, 1, 222}, {1, 88, 1, 223}, {2, 89, 1, 223}, {3, 90, 1, 223}, {1, 89, 1, 224}, {2, 91, 1, 224}, {3, 92, 1, 224}, {1, 90, 1, 225}, {2, 92, 1, 225}, {3, 93, 1, 225}, {4, 85, 1, 226}, {5, 86, 1, 226}, {6, 87, 1, 226}, {5, 85, 1, 227}, {7, 86, 1, 227}, {8, 87, 1, 227}, {6, 85, 1, 228}, {8, 86, 1, 228}, {9, 87, 1, 228}, {4, 88, 1, 229}, {5, 89, 1, 229}, {6, 90, 1, 229}, {4, 89, 1, 230}, {5, 91, 1, 230}, {6, 92, 1, 230}, {4, 90, 1, 231}, {5, 92, 1, 231}, {6, 93, 1, 231}, {5, 88, 1, 232}, {7, 89, 1, 232}, {8, 90, 1, 232}, {5, 89, 1, 233}, {7, 91, 1, 233}, {8, 92, 1, 233}, {5, 90, 1, 234}, {7, 92, 1, 234}, {8, 93, 1, 234}, {6, 88, 1, 235}, {8, 89, 1, 235}, {9, 90, 1, 235}, {6, 89, 1, 236}, {8, 91, 1, 236}, {9, 92, 1, 236}, {6, 90, 1, 237}, {8, 92, 1, 237}, {9, 93, 1, 237}, {4, 88, 1, 238}, {5, 89, 2, 238}, {6, 90, 2, 238}, {7, 91, 1, 238}, {8, 92, 2, 238}, {9, 93, 1, 238}, {4, 94, 1, 239}, {5, 95, 2, 239}, {6, 96, 2, 239}, {7, 97, 1, 239}, {8, 98, 2, 239}, {9, 99, 1, 239}, {4, 95, 1, 240}, {5, 97, 2, 240}, {6, 98, 2, 240}, {7, 100, 1, 240}, {8, 101, 2, 240}, {9, 102, 1, 240}, {4, 96, 1, 241}, {5, 98, 2, 241}, {6, 99, 2, 241}, {7, 101, 1, 241}, {8, 102, 2, 241}, {9, 103, 1, 241}, {10, 88, 1, 242}, {11, 89, 2, 242}, {12, 90, 2, 242}, {13, 91, 1, 242}, {14, 92, 2, 242}, {15, 93, 1, 242}, {11, 88, 1, 243}, {13, 89, 2, 243}, {14, 90, 2, 243}, {16, 91, 1, 243}, {17, 92, 2, 243}, {18, 93, 1, 243}, {12, 88, 1, 244}, {14, 89, 2, 244}, {15, 90, 2, 244}, {17, 91, 1, 244}, {18, 92, 2, 244}, {19, 93, 1, 244}, {10, 94, 1, 245}, {11, 95, 3, 245}, {12, 96, 3, 245}, {13, 97, 3, 245}, {14, 98, 6, 245}, {15, 99, 3, 245}, {16, 100, 1, 245}, {17, 101, 3, 245}, {18, 102, 3, 245}, {19, 103, 1, 245}, {20, 104, 1, 246}, {21, 105, 4, 246}, {22, 106, 4, 246}, {23, 107, 6, 246}, {24, 108, 12, 246}, {25, 109, 6, 246}, {26, 110, 4, 246}, {27, 111, 12, 246}, {28, 112, 12, 246}, {29, 113, 4, 246}, {30, 114, 1, 246}, {31, 115, 4, 246}, {32, 116, 6, 246}, {33, 117, 4, 246}, {34, 118, 1, 246}, {0, 119, 1, 247}, {1, 120, 1, 248}, {2, 121, 1, 248}, {3, 122, 1, 248}, {4, 123, 1, 249}, {5, 124, 2, 249}, {6, 125, 2, 249}, {7, 126, 1, 249}, {8, 127, 2, 249}, {9, 128, 1, 249}, {0, 129, 1, 250}, {84, 84, 1, 251}, {85, 85, 1, 252}, {86, 86, 1, 252}, {87, 87, 1, 252}, {88, 88, 1, 253}, {89, 89, 2, 253}, {90, 90, 2, 253}, {91, 91, 1, 253}, {92, 92, 2, 253}, {93, 93, 1, 253}, {84, 119, 1, 254}, {0, 130, 1, 255}, {0, 131, 1, 256}, {0, 165, 1, 257}, {0, 199, 1, 258}, {0, 215, 1, 259}, {0, 219, 1, 260}, {1, 132, 1, 261}, {2, 133, 1, 261}, {3, 134, 1, 261}, {1, 135, 1, 262}, {2, 136, 1, 262}, {3, 137, 1, 262}, {1, 136, 1, 263}, {2, 138, 1, 263}, {3, 139, 1, 263}, {1, 137, 1, 264}, {2, 139, 1, 264}, {3, 140, 1, 264}, {1, 141, 1, 265}, {2, 142, 1, 265}, {3, 143, 1, 265}, {1, 142, 1, 266}, {2, 144, 1, 266}, {3, 145, 1, 266}, {1, 143, 1, 267}, {2, 145, 1, 267}, {3, 146, 1, 267}, {1, 166, 1, 268}, {2, 167, 1, 268}, {3, 168, 1, 268}, {1, 169, 1, 269}, {2, 170, 1, 269}, {3, 171, 1, 269}, {1, 170, 1, 270}, {2, 172, 1, 270}, {3, 173, 1, 270}, {1, 171, 1, 271}, {2, 173, 1, 271}, {3, 174, 1, 271}, {1, 175, 1, 272}, {2, 176, 1, 272}, {3, 177, 1, 272}, {1, 176, 1, 273}, {2, 178, 1, 273}, {3, 179, 1, 273}, {1, 177, 1, 274}, {2, 179, 1, 274}, {3, 180, 1, 274}, {1, 200, 1, 275}, {2, 201, 1, 275}, {3, 202, 1, 275}, {1, 216, 1, 276}, {2, 217, 1, 276}, {3, 218, 1, 276}, {4, 141, 1, 277}, {5, 142, 1, 277}, {6, 143, 1, 277}, {4, 142, 1, 278}, {5, 144, 1, 278}, {6, 145, 1, 278}, {4, 143, 1, 279}, {5, 145, 1, 279}, {6, 146, 1, 279}, {5, 141, 1, 280}, {7, 142, 1, 280}, {8, 143, 1, 280}, {5, 142, 1, 281}, {7, 144, 1, 281}, {8, 145, 1, 281}, {5, 143, 1, 282}, {7, 145, 1, 282}, {8, 146, 1, 282}, {6, 141, 1, 283}, {8, 142, 1, 283}, {9, 143, 1, 283}, {6, 142, 1, 284}, {8, 144, 1, 284}, {9, 145, 1, 284}, {6, 143, 1, 285}, {8, 145, 1, 285}, {9, 146, 1, 285}, {4, 166, 1, 286}, {5, 167, 1, 286}, {6, 168, 1, 286}, {5, 166, 1, 287}, {7, 167, 1, 287}, {8, 168, 1, 287}, {6, 166, 1, 288}, {8, 167, 1, 288}, {9, 168, 1, 288}, {4, 169, 1, 289}, {5, 170, 2, 289}, {6, 171, 2, 289}, {7, 172, 1, 289}, {8, 173, 2, 289}, {9, 174, 1, 289}, {4, 203, 1, 290}, {5, 204, 2, 290}, {6, 205, 2, 290}, {7, 206, 1, 290}, {8, 207, 2, 290}, {9, 208, 1, 290}, {4, 141, 1, 291}, {5, 142, 2, 291}, {6, 143, 2, 291}, {7, 144, 1, 291}, {8, 145, 2, 291}, {9, 146, 1, 291}, {4, 147, 1, 292}, {5, 148, 1, 292}, {5, 153, 1, 292}, {6, 149, 1, 292}, {6, 159, 1, 292}, {7, 154, 1, 292}, {8, 155, 1, 292}, {8, 160, 1, 292}, {9, 161, 1, 292}, {4, 148, 1, 293}, {5, 150, 1, 293}, {5, 154, 1, 293}, {6, 151, 1, 293}, {6, 160, 1, 293}, {7, 156, 1, 293}, {8, 157, 1, 293}, {8, 162, 1, 293}, {9, 163, 1, 293}, {4, 149, 1, 294}, {5, 151, 1, 294}, {5, 155, 1, 294}, {6, 152, 1, 294}, {6, 161, 1, 294}, {7, 157, 1, 294}, {8, 158, 1, 294}, {8, 163, 1, 294}, {9, 164, 1, 294}, {4, 175, 1, 295}, {5, 176, 2, 295}, {6, 177, 2, 295}, {7, 178, 1, 295}, {8, 179, 2, 295}, {9, 180, 1, 295}, {4, 209, 1, 296}, {5, 210, 2, 296}, {6, 211, 2, 296}, {7, 212, 1, 296}, {8, 213, 2, 296}, {9, 214, 1, 296}, {10, 181, 1, 297}, {11, 182, 2, 297}, {11, 187, 1, 297}, {12, 183, 2, 297}, {12, 193, 1, 297}, {13, 184, 1, 297}, {13, 188, 2, 297}, {14, 185, 2, 297}, {14, 189, 2, 297}, {14, 194, 2, 297}, {15, 186, 1, 297}, {15, 195, 2, 297}, {16, 190, 1, 297}, {17, 191, 2, 297}, {17, 196, 1, 297}, {18, 192, 1, 297}, {18, 197, 2, 297}, {19, 198, 1, 297}, {0, 221, 1, 298}, {0, 222, 1, 299}, {0, 238, 1, 300}, {0, 245, 1, 301}, {1, 223, 1, 302}, {2, 224, 1, 302}, {3, 225, 1, 302}, {1, 239, 1, 303}, {2, 240, 1, 303}, {3, 241, 1, 303}, {84, 131, 1, 304}, {1, 226, 1, 305}, {2, 227, 1, 305}, {3, 228, 1, 305}, {1, 242, 1, 306}, {2, 243, 1, 306}, {3, 244, 1, 306}, {4, 229, 1, 307}, {5, 230, 1, 307}, {5, 232, 1, 307}, {6, 231, 1, 307}, {6, 235, 1, 307}, {7, 233, 1, 307}, {8, 234, 1, 307}, {8, 236, 1, 307}, {9, 237, 1, 307}, {84, 165, 1, 308}, {85, 166, 1, 309}, {86, 167, 1, 309}, {87, 168, 1, 309}, {84, 199, 1, 310}, {0, 247, 1, 311}, {0, 248, 1, 312}, {119, 131, 1, 313}, {0, 251, 1, 314}, {0, 252, 1, 315}, {84, 222, 1, 316}, {131, 131, 1, 317}, {131, 165, 1, 318}, {131, 199, 1, 319}, {165, 165, 1, 320}, {131, 222, 1, 321}, {0, 255, 1, 322}, {0, 256, 1, 323}, {0, 257, 1, 324}, {0, 258, 1, 325}, {0, 259, 1, 326}, {0, 261, 1, 327}, {0, 268, 1, 328}, {0, 275, 1, 329}, {0, 289, 1, 330}, {0, 291, 1, 331}, {0, 295, 1, 332}, {1, 262, 1, 333}, {2, 263, 1, 333}, {3, 264, 1, 333}, {1, 269, 1, 334}, {2, 270, 1, 334}, {3, 271, 1, 334}, {1, 265, 1, 335}, {2, 266, 1, 335}, {3, 267, 1, 335}, {1, 272, 1, 336}, {2, 273, 1, 336}, {3, 274, 1, 336}, {1, 292, 1, 337}, {2, 293, 1, 337}, {3, 294, 1, 337}, {1, 286, 1, 338}, {2, 287, 1, 338}, {3, 288, 1, 338}, {4, 277, 1, 339}, {5, 278, 1, 339}, {5, 280, 1, 339}, {6, 279, 1, 339}, {6, 283, 1, 339}, {7, 281, 1, 339}, {8, 282, 1, 339}, {8, 284, 1, 339}, {9, 285, 1, 339}, {0, 298, 1, 340}, {0, 299, 1, 341}, {0, 300, 1, 342}, {0, 302, 1, 343}, {0, 304, 1, 344}, {0, 305, 1, 345}, {0, 308, 1, 346}, {84, 261, 1, 347}, {0, 311, 1, 348}, {0, 314, 1, 349}}
alpha_scalar_moments = 92
alpha_moment_mapping = {0, 84, 119, 129, 130, 131, 165, 199, 215, 219, 220, 221, 222, 238, 245, 246, 247, 248, 249, 250, 251, 252, 253, 254, 255, 256, 257, 258, 259, 260, 261, 268, 275, 276, 289, 290, 291, 295, 296, 297, 298, 299, 300, 301, 302, 303, 304, 305, 306, 307, 308, 309, 310, 311, 312, 313, 314, 315, 316, 322, 323, 324, 325, 326, 327, 328, 329, 330, 331, 332, 333, 334, 317, 335, 336, 337, 318, 338, 319, 320, 339, 340, 341, 342, 343, 344, 345, 346, 321, 347, 348, 349}
species_coeffs = {3.109849221068526e+00, 3.109833631160642e+00}
moment_coeffs = {1.132605928038283e+01, -1.140310114244726e+02, 3.264130723768604e+01, -7.911057151937445e+01, 1.184589381703800e+02, -1.368357756393422e+02, -2.322005746131825e+03, -6.179991095308931e+02, -1.102387293496081e+03, 2.643386584916827e+02, 6.133626383165393e+02, 1.528311214130393e+03, 7.574306047576239e+02, 2.210330554294407e+03, 1.361264007737478e+03, -7.835036456153284e+02, 7.527293462321842e+02, -3.648210164678447e+02, 1.834460328973219e+02, 3.061174649538603e+02, -8.043871625120870e+02, -2.252845154574762e+01, 1.058803073745402e+03, -3.476972222131799e+02, -1.617664696700992e+03, 7.552817264260471e+03, 1.964210568887456e+04, -5.150299864814906e+03, 1.604421583220105e+04, 1.380739634456829e+04, -1.439958758332631e+04, -6.820122098843956e+03, -1.995231999752450e+04, -2.622773288655567e+04, -1.233256778959675e+04, -3.373545145183027e+03, 1.516045319756005e+04, 3.293976946889088e+03, 1.058902130038884e+03, -1.619320182807517e+04, -1.873047190602667e+04, -1.903123028697422e+04, -2.737299218367967e+04, -1.341899860251083e+02, 1.987102742584846e+04, -1.275301563458313e+04, 3.038662077855343e+04, 1.156683699336969e+04, -6.329424119389975e+03, -8.432696605931361e+02, -4.824521134168111e+03, 5.096968547484519e+03, -1.797901070525280e+04, -9.704337201965132e+03, 9.316679918076032e+03, -5.738907443585382e+03, 1.512406753657098e+04, 5.745183564863971e+03, 4.071929372588634e+03, -1.180835429975952e+04, 3.331665780243953e+04, -1.450155383353914e+04, 8.049005173515563e+04, 1.353428521575673e+04, 1.240209482616382e+04, 2.449169774557612e+04, 4.075736318142122e+04, -1.421609123319621e+04, -8.319418140203199e+03, 4.944463626296377e+04, -7.998074051228758e+03, 1.466452855115775e+04, -1.205684410206068e+04, -5.903466476274853e+03, 3.526122563955252e+03, 1.115118763525100e+04, -7.470204159105884e+03, -9.305043880446463e+01, 8.036707175076873e+03, -9.928366234158353e+03, -3.523244325861010e+03, 6.612640744942259e+04, -5.030184663043614e+04, 6.753989616608497e+04, -9.314746166989696e+04, -3.078455955500214e+04, 1.209285637995290e+04, -9.550832908003136e+02, -4.390242875320889e+04, 1.095628097051005e+04, 5.259656935052809e+04, -5.522758099549163e+04}
#MVS_v1.1
energy_weight 0.0000000000000000e+00
force_weight 0.0000000000000000e+00
stress_weight 0.0000000000000000e+00
site_en_weight 1.0000000000000000e+00
weight_scaling 2
#U?O;?mM?}m'K5=hϭi/( @zU}I@+d-%L+և5pt$@X@+%ľ?7*P@4BR1@q @FENM;+0)lWM@pu)&$KK]"@mJ>5w"V{ l0@%oE@&#!ӭR`?gQ@^L'T@9͵@۷
:
X
ئ@R\o@rYiUP?i1;h5U	@c7	8,@4Ai!@䈙4eXC&ژ)@D@@eߕxYt1.}%.(@-a9Ki-%@\N1@|P|2
FDT7c" @X2@岷ߘ*~BYO0@L:0}4Gu j5@                                                                                                                                                                                                                                                                                                                                                                                                                                                                                                                                      ?        #Mv?udZ?3ѹ&1at?MQ!k?S$?CgSua?8?Z$#g\?V>?sY?W?Mч?8F?3x!?sSY@?|]dG,B3+AQ/e2?tD?U.F?[oc"1?QͿQ{	(?Wy9>y8 ?:Sj&>?ܒJqx>pJB%>
$t>Fi>nE<>*~?W?Xƚ>8?u?>A?1 N>r;>? fǳm>?\U>G>Pش)>xǈ>t>T#wJ><j>C'?47>D<Oj\N>w"]TMO&S_{ܾPO?e>ջXJ>[ >qw> !3X>-e>6Cg{>RQ!<'w><<[>d 9g~>MD>/L>pG?>Cfam.>Ž+e>`GZ>{#N>ۍIU>H{>ƀkS{>]0p>4n>>0a]R>{R>$l8~>M;B>KLs>"r>UNUm>οR'>M{Q>c-d>Cn D -
x>Hjv]D@sn)^@Q6K?ٺ7@`=$@Ma42lX@F!ut@rKYu](Tdɧlb@y묝V6-G@iP@/MRhkZR@j"$[_G*=/@T5@l@4ʘ	54f:լڧK@,%N1@MhM	]ᶻ1	@{?@bc@sRdۼa@۬g@QuS@ !
]SbQS@LxSԎ.)>S@۵@Qz t!D[@]eKtp@0²p{XAQIq@:Ok=VZ@K}ZEKZ";}YJ@a%mDb7@+8ʇ6(	V@"s_"@q]$@~@n"$u2@Z"
@9                                                                                                                                                                                                                                                                                                                                                                                                                                                                                                                                      ?        =4%=?B?0]?E:L'+i?'ѵ^??c7b?~?ۛd?XδQ?8?0KԂ?,d{̮?7ބ?^s_\?fKli?~8sDo?BU?RE.5O昰3?j?oSJC?OZ?A[<~?)7?@?. s?.0<?:Qqq?-@?o*61?(?2?2-P0?711?V{l?b&6?"v~m?5&4? (-j?t(g;2?q'~?AptT]?n?ZS,,A`?#x^F?#Ul4V?+J?1wPRV?5ڏߌLH?Fr%?15υ? 75W?6zO?wX=n?PȿEH?trU'?WHo٢?D=?P!*`p?I62{W?cKe?FnĒlN?1|?)xqZK?JJS?؀a?B9mo 
?ō.F?x^F?ڞ#?/~r>!>l?%e;>P'E?Is>x?}
?s)4?QML>hEC?vI1rA?{Kj?YZ6?b?|!?Aʣ@=$?XS[51?1#i`?_>IIF?oT@G?	w\}?xk4	)YB@rQ@a`@a\ܺI
!t0@1E9:}9 3*X@ا"ds@z۳V9:xd)"a@aRtG|v+@b4ZU@Z`(cUR@~D!xo<HwaW+@ŉU]@T+6?@-]w*3ҧԎ:4` @ Ja1@W9C9o)t
2o /@h?eU!@2O[t']a@My{1@mR@ܱ@]h@Յ)Q@IlRF@#T2@MosyX@qucD-m@rqym>j@y>a$[xbZ@AD|'|݈;/JcJ@	7A`
C.@rR/g@ Y"@3|VU#%@3@X){%R?+^@2 M                                                                                                                                                                                                                                                                                                                                                                                                                                                                                                                                      ?        ;|#?w}Kc?$q?{Qq;?ͣR[?sTS?d8=\?3}J&?8=m=\?RUB?Bc;?զC>?	(0?ހ?ˬ?@f?iZSg?'_B?/<$p?y?=$YF?5?GifJ}?#sߛp_5?U-Ӣs?5?;q?[ׁ5?0?F 0?:,0?m0?ɣE;=m?3N.1?r࿏n?	(1?g:8k?]7H0?<{Bv?x%4Z?7ԇ?4צ(Z?;i
E?G0T?_~/(G?sT?īlE?rw1E?.T??,sT?G+H?2Hj?6_ހB?U#?M,?<B?24
il?:y?W?~.?%	trN?1f-@?#f3K?LZ)p>
?BK9{I
?=s3	?z-F?E8SG?j[
? +s>Lu?H-jϿ>??Qڷɧ>K-??a2T?27S>[D?bB?/ǂi?03P4?砚Pyb?og%U ?sJ"?*j0?RP`?p>=1x?Br+D?jBҹ-|?iXUh?`Im5@n*1+gϩNR	@62@[rvV& :q.YRD	6@D3UD,nfjy.$@7~'O/@ˌ^u0%@@jT?#:<9<@\'5@MQ+xgn6.`v4@Y A֜a[^%R>@X*J3Ew6U,@N[6@fB+62]-sYIV?wi@pC`(W?|ɳi	MW*@m1,#?V?+q@D;`y3@BOmm?TOhGm5<'@ 7H@[$I#z94W7}2@1M"*ZAGՙ.6@Kx"6<nagI$@V;@*2X3+V,@1K@Jqje08٘}7@                                                                                                                                                                                                                                                                                                                                                                                                                                                                                                                                      ?        Z`j8ߵ?5Ir?"{DciA.TL}?G6>U.ݬj?SE?6DSc?FJ?ЖG̤`?h{pjo?
_H>QՍsY?Ufaw0R?R
E}PBc>|p2dm&mmb\u`?ezmZ>2)_I?gnD;oD?؃v>2҄;2?$u?h *?&V.?D`K> >ۨ>[fL>s	' ?JGˏ>յ	!?q@o>d-?3o4>2%y5?p>	%Ve!?+×ԾWH	w>1@>d->?X>>N!װ>v&ē?0Ps(#?4O}T	>ݧ>{DQ*"y> ľ[:1&?)>B6|0>gD?&&ڌ>3X)|>">g^W>TSk>ͮx>
ƹp>kOh>=J>:b>~>JW:NW>s>m3`9V>)4>2Af>(E}]y>*P_HX>o:iT>1~n:<>Ky'> Z>K1z> DȲ>fb>ݗmQ~>l+T>J_0>ڭ=&]>Y	>5(xhÅD@YO~Z@%c6K;@ȁ6Ib?aYХ03=W@h
$^u@om=Xbdq"%a@gZX`LN@"Q@4Xhh<Q@f,:"l/H+DK'@1?45g!@*"
mh
6IO;3@ 1@:Ѯ{[j	ޝԚs3
@?I@TplqSa@T˃d5ؾ{Q@⣽[sTWV@ DPU9c*T@,W@nHt9[@ߦMgဳOp@p_quQr@p]=n%o<8X@ KCR$Ӂ!= I@ KfC1};@kq;G7(@-R>y"@$@gAJ@$6DD/@m@Qj?                                                                                                                                                                                                                                                                                                                                                                                                                                                                                                                                      ?        >ֆa?~p?Krι?u8Jyi%?۞^?`A-?Nva??*vZd?G!QC\?$M?<{RBl?_y'?$QEl ?"/V?
?X5
Ip?]-?kYqQ?r?Jq\"?«[wH?40R}?Ϻ)7?]>7s?u
;?,Xq?)wlb??5ڊ&2?~/3?ry1?JhFr2?TrD\l?;[-6?u"	Km?Z"p5?!Sj?2?,k?]Dhn]?? ?BI`?VG?JػW?gۙJ?0ߩf=W?@؋H?s_43`?L踃I?t(X?O?>Tn?D\I?E.C,(?Yd?1P%?ӗ ep?V?&^*O?ѓ\M?}4_?ϵJ?:?GB?_l
?7vE?)F?Bٮ>?:й>EA?l>>lmFM?rJ%>Ie{?.Q;?71?ʐ(DVO>#;kC?7"}A?PQi?Ǒ57?aA7b?NuF!?"܁$?a<1?bLdU`?6>1+ULX?6ȥG?ۼ[|?&N<i k',@@F3]@;=FpN?x6@,Wa>}8 EU@J-t@Hs{ V)>d 7)_@$`V.xRWH@59[S@ܙ%fF>YR@t\m"Xz\Gd)@M͊ @שL`
@Ǜ3FeZ;o'@M~02@#=,Ngs.?<@ƲE4@XJPr^[#__@QO{+@mqfQ@hUqVW}MG@1J|>EJ@?Հ@?[}sqJ ؁X@UmWfVp\?n@1fll+Jm@,?Vhe2#	Y@E!C5>M&7Q< A-H@lD@)9E3@P642a tA_6"@x*W%@;F\}@-$Ag$
~?u@OU߿                                                                                                                                                                                                                                                                                                                                                                                                                                                                                                                                      ?        v5<]?3)!?r}~?IbR?~[??iC\?M"O? /\?r9?|aV?&?Atj?_pX?pK̫?K?6?^(cl?5`W`?w쐿Ρ7,?EW?iq,,i?Jcobw?d0"Y}?Po65?4Y=s?APӉ5?64q?j	5?0?kX}[0?8..?tO].?։Rwk?6mO0?.l?~0?! Ij?sAH.?ԡכ"??,'[?2?l$U?Z?4dD?sJ=aDU?NaRG?}瓂EU?PMD?Uށ?ӷRj?8YCT?%@Q/4G?:㲘Nk?a^yE?lϿR#?燂?,\h?zjFqm?SVV??[?|JbM?of?ݺJ?Gu	?=/y:	?l]п?M*+E?MKF?.Ls	?y>/;M?@n<>a?7DA>s=?
<?FuZS?.&^>U,C?xFlA?h?m74?|E
].a?ΐ%?sU!?O{C_g0?@#UK'`?`6>e`?YE?C@|\{?/'ƒZC:(@|=,?(/ϣY)@ij$0@xC7ޭpA?4@VhUp@XT1<u1@' V@rL[;@Y͗@69Mb1bWR]5@+x@SF4w4'3xT,;?1+)t͕6W?<@<@<3[ru8V6 [eW7@ăn@3z0>XRe@o=#@aSx#9S
@hiE1@%?O'le`@YJ;i^¹ @DA	0@qiMt04@;i@ X-2нj!@RHC@!-2?{\6UlC~o0@6;2Sv)qxi9@dSx"ME4@Ei9@|/2[
c!@rak,@>d<>%@                                                                                                                                                                                                                                                                                                                                                                                                                                                                                                                                      ?        ?{?~w̩!2!$;r?:@>T5$:`?p9?ҩW???}׳S?g%?[?϶!>~sL
E?yn!yO=?gub!3l<=W`fD9OofttkD?IH>R-?#_`vk^v3?2> #S!?8]>dBS?4\k ?DRk>wU!Al>e^|w`>I=Q>_k?=Nv>i.?S	n>[{>F?Z=:_1>@=?~Hg>X FT?.B4⾄mEa>7ܛ2>Ir>6!o>kFm]>+HF>RvG
?Oe>ljte>ve[7:P5W,# `d?CBs>8b>dp%:>g*\Y>iHJ8~>6>Wv@k	>|-M->RS3.>MPe!>M^>t6<AF>c|/%>=%=i>=îc>'i0v==WG>V/F> 7Xv>ʏ=I!>%XR'v>)V_A>+30>tZd>˻6>,#>%PZ;C>[[S\0>Aꯣ>*C=}8l>A_'_>7BV<Yy*@҆M@r5D$)@N?QDOG9Y(=1@yMim@|aܝQr0r^Edd[@M(hN;J5@uJJ@q gaKfjP@3'ؗ%_Dߑ:1@Fh@΋H@Q4KRTT8㺎=ɬ@k3@f,.5@PwO~ ͿnE @uE@-lcT\rpHcQ@>hGS7H@|=nϾKRpD@NO@l8X,"z@PMp Ih4SFR@KTWېb@{^<@J@?	<@9PW@,!Dq6$3?!0FD@@xP ,l,6@[l[IBᒘ_#@h7<)@>4T@(X@!"sŅB</U|ո8@u0                                                                                                                                                                                                                                                                                                                                                                                                                                                                                                                                      ?        uQE?G=?r|g?wYf{?&dGwkd?Ej;k8?;s?c|"?Gx?Ax?z?4r.m?_ƃ?[k?b, ? ֋"?5	m? pt?rw?Ahuo$T?ɀ?5?h)\?پ)?i>^,{?">?+Kfen?}L?-fh?Ԧ:R?Hw.?
JVٝ6?~V-?OU3?mb?\CC?ѧDd?%4A?q#՚_?.eX8?g1`?&Q]?Pڀ?pf?
@C?T?.:O?X"P?A~+L?I
w?i8?gwU?.W,]?c?,N?%?yGѭO?S4a`~?_wn?(lT?T?(t§F?Nug[%?\wB?s0?Neq?}:C?%<?65]w>?vJ.?_/ƈ>w0>	tN|>4>k>bl>?8V	?ndh ?>9@Ӎ9?hS5?grd?LX6??UY?zO?VAp'?!F(?wFAwW?=>6(t?<?ݿu_u?B,]c<6@ݛwN@=TD!r=@4xa6BLKwN@T'r@Ѷv,QTXc/s^@ܻ@OfݕA@/>L@e!1`M@#)SABL(T.@"B0:?\x=4@RrsBF7$
;<S)@ m2@_Ğ
̲T@@rLE@)r(gJ<*X@eYQ9ebg?(Q@jHSzQ@ewԯYS]KN}@@U1@DqG ^v}Q@lɹaݞ׼j@S+fZ=.3c@aRV$T%"gV@*Y(/DH<[w?85+X3C@ 5i"@#3|%A "@{H '@Y\6b@Md#n.h?Cߌ@С}                                                                                                                                                                                                                                                                                                                                                                                                                                                                                                                                      ?        #/o?nj>n?}[[?Eű_V?B[!j?r$>!?#O;%v?7A:a?W$׌{?hw_?c؀?<po?Pc:?'Ͱ|?f8W?a	y?Ѝ̶%w?$ђP?>Խ5?\_??k?Eg
@(?8Q2{?.})C?K:o?gpO"P?yi?l[7T?>3?sWg<?&sGL3?ㄞ::?,ned?l}rG??e?¿tHD?a?m .=?l󆿌?^b?d7?JKj?XM	fI?i?OZ?Xa/T?[,U?~GåR? wy?^ղ?
~[? ja?Nu)f?ʮ$gQ?O0?uec?LÂ?EFʧ>ks?/S`rT?{h?6G?co	)?ĪGqWC?'B??a_[\?h{ϫ>?E@?A*?u>	
?%jWV>C;A?wR^>D3?b)r(?7m?z+S>97;?7?yfe?z;?PSc[?H#U#?F&Vm9/?uK/?,˩Y?^Q?xz\KE?1@?)v?l@?ql?Dck?X@n
w'@נ@vc-EpM2cNI'TX3&E-@^!@Ӣ^!u8?2)`h0|@ZD08@8o?ȫ{5ɵ4?CQN.@}7S"{{8M$g+'@0
L>de7J%"Er:@%]&g?(!2˘@Wca'@gO,5C؅@@?@zy٣@$Gf	1?J@:Yi1$@=.@&nR$AB@۽cw9ϋt;ѕ&@TB@GQ|"Щ+3A+@j:d!J3@R*t|'@$2GtFHI;8	%@c8@H'j*.O;L!@TX_)Rt)	bF95@                                                                                                                                                                                                                                                                                                                                                                                                                                                                                                                                      ?        .6\?ǋh^=?bVƪZNB4_js?oI?? f?z]W!?eB"c?кf'?Z@a?aEeg?MgOG	?2ut/q/V?fNB>#[P?D~mR#)ZҾHK,
HXdyE%y42\?/?OH?Z2Ral>c5?z媴>"gf(?!>Sd>%?͏0>J Z$!>K>3Qq>#Ze`>ad ?+>hT ?-^>uq@?Q=>p)?B'>J>Vp?h>G	>WY>f`4(>E7+>[/>ۆ)?NU?7+>[>2>0b76p|оN0?^PH>G	F>u:
Yf>J>>4N>N̥>ɘ&>Cp͖zy>\1樍>FGQt>.
4B>+WHr>EQ>L;">G
e>,D8>+pa>
J2>&rE>'>䬎p>ϋ/JF>WӤm>=*m>XJd>7ѽ>0R>$6<6K,w>,aЌ>1Bq>ys>u!/>9F6n> ,Vxk>ng9DB@aN[@K^ŦK0 -@P((w84_LQ@vs@G6U96dI=U_@dRUYB@ƣ{S@`!eПQ@::"ӆvE
́d,@a=J:?Ǧd@,?E%+5+2Xj;g7@wp&2@zdn1mHĶ׿JO=@SC%_@iqPn`@}R˝0
@]4Q@3(]ɦJT@BOYڗI@M@2oas2RU@۠2dgjp@oRYlS>l \j@ c[;ɦX@OˀgDUc;L3G@<ZYby?ȉHP1@P1(j[AZfѽ"@d%@o)@4b$K/P?s7t@Q<                                                                                                                                                                                                                                                                                                                                                                                                                                                                                                                                       ?        o8?Ӣ?i7o?k"[OʵVKg?0πd?7q?Qn?)&Ď?Ls??\3n"?TI"}?zש.?t)?` ?D8x?#h?s?cAt
?&n,jdN?o}c?1l;?AN>m?]HK
}?!V>?E\kr?&vuG? ?Nn?eIN?|2?ڕ7?{-1?@-N6? !'i?B?p#vj?ح~??"Qf?%8?vҏ?o*j`?."?e?q]G?jvMY?eEP?oV?bWB&O?v,?aakp؃?6fY?wY?ogqPi?N?5>*?+vYo?&y?!_^r?EQV?W?"K?T"."?8»G?FZ*у?Aq?8lQ?HTC?U,UD?V:? x>LS?syJ>׽?6?> eR?f?(h|?:^[>ً[A?>?!th?Tra9?h0`?`<S"?Y/GY*?[!2{0?tZ^?la>8>?sC?uV~z?4@'gmm"-h0Ӆip?&vydѡ|{h@Ǧ-J?q~A]/l@|t9@Xh45cx ɜa>@7͵\K{9yك;@8c_}	?5'/@	nz$ @:M\v7m;G@t=4@W,?5>(1@_h7@go1r"!R?b:@ߤC>P,6#B^{p@IA֗BxW{B@Yz,{	Ԃ|/@s72Y	7 F̂'@+hR7@Yt1N4HB&(q)@T,ƿj?72RE5b :@0C@R'7*	A4}3M7@kP\,-;A6@	fV89`F)5-@	#d6@6Wjk:J*7G0@``@Z,9@w;@                                                                                                                                                                                                                                                                                                                                                                                                                                                                                                                                      ?        t(#ղ?Lx΢?!qKԈS8jC*v?]7T>Rtم{}e?{n=?o@
`?02:8C?)([?&"f?z#h>|c>S?'->L?)Z54X逵H4?vcLZeV?A3 /8?a@4D?Kt$:G:?2(>qK)?`$?#˞"?F^8I?3s>G2u>T/8$t'>mfNo>nlg?TƳ>!Lj?Xq>C
?f$>r<	*?qa	>Qru?|jEA>rAkz>la>z,>]A>,?め|B?fFS_>;͘>?1t(ѾBjiv9f`?55dy>Ș>s>"lo|>xg<>N >-BDFT>@k>Uͫ\>sn_>0P>Wt>aW+n3[>eچ>&I[>V;T=ǭkG[>borD5>J<s1>D
Fk>Yn@MI>'!B>`]<>yH>8>'x>(<>5.U>FzZel>H1	d>"I>%M/=Hn5[>	h>`^0gzQA@a0{Z@jH䎒5@]%|7:F(csV@[Hqxs@Q^W1dNa@;&T9l?@#oS@+Q\eg@ :S@.^N\.$ɊIH7HW0@o@w@ltV*J|5FM}s:Zh@u^`1@Y$9 Wԛ<8[ո%཮@&αs@0Lt8qhr`@=QH&k?S@#in\w3TU@se;V(T@>~Ł@췣JtkV\@'efGMp@po5R6q@Dd,k~1Z@kXIEIaw
$!7g="SK@)2C~( "}8@^@"8="$@=`d9"@#˸J%@<Yp@A$O^kLr@)b	@բܿ?                                                                                                                                                                                                                                                                                                                                                                                                                                                                                                                                      ?        DLU?uQO?wm ?]=Q?'K/6_?1??ʘa?[jq֖?s[b?l'o߶ɕ?%a8?eyw鉃?@\u]??<4.?_?!*'p?Vv?RةJK|N?U{?Q %?RAF?4>~?DSƅ@8?Bh痓s?!;X;?j˾q?(wx=?xW2?S43?"V2?L2?rUl?b|/
5?2J̊m?ȧ4?.+k?#Ǽ`3?[}? 'F(]^?q?/\`?qG?0X X?ΒJ?&tT˯W?ĀH?:K?/q?OX?(z|	N?Ck?Xm%#I?&?U+?&=?P?vˬp?LZTW?D#?C3lN?aa??	ҫK?dMǒS?1x?rm? =iF?g G?4M?7/1>`r4?Wq>W{?oF>_ҳ?'>?;?/)>UC?^t'B?ܯi?9&7?<IUb?bv6"?Q/u$?U6g2?z)~*`?>8 ?jrE?$|?m2hn:EܤC@a@jq޳KIK[1@鰭e="Dp79`Y@t@]xV4]"lmd1eYy`@oVUifλն@@m؆W@JB f엦R@$a} rG:-Vk*@T`h@C*M@^ȿ}G1}m4;@Ջ/D1@`kF`87b_N@u;&Y@իXum	a@_1&9@]<R:fR@\+M@d1Chl̢W=@o@]WsnS*/X@I+IJd6D{el@uw%lwi@A)S[=Y@|C\!S_&ocj;Vim@gH@82?s2-@W,m'@IO"@}(>$@̃W@e$?<{U@+tt                                                                                                                                                                                                                                                                                                                                                                                                                                                                                                                                      ?        $F?*i?ٽhP?򋶑Vs`x&?ufԣZ?^#?kZ?&?d([?om?ћc4?E?`?֜?Ǹ/G?OtNC?ךf?r_?=@|>3!{?쇪?F5ľ?DĜ?l}?ś4?7mSs?D4?ɠq?C4?#N/?/?d+C-?[a.?"ʊl?Bz0?*5Hom?[0?5Gj?Ů	.?<Tg?}`Y?!?naY?GC? iT?ZF?wYS?Q"$C?bd>?FOg?FS?%"F?'#j?J8˲A?(2"?ˎ*?ױNTy?Jl?b^cV?XH?|گ`M?[9ar?ZK&K?<('p?5?d

?6hF??zF?zK?%>iY?9->c(8?-]>1ew?ƻX?n5?.OR>dӁC?A?(ai?v3?-b?k)j?UW!?X⊢.?m`?Ұe~>G-?mL)D?8|?T;d| ]27@#4Y@ѬH_ADO\p6P?gzi0E@Rq@ɼk³QPMc<"V@Ǖ]Ff&tG@L6jA@ob8VTP@5LAq"*EN7A|$$@.vM|@2s0@`!+i	pJ4gG'='n@=Ag3@IiSch=w=b@ZD@.=]1l
X@PIEW2@>jX_G@SA`K9@?U @]c[:/z8~@S{pIlKK@lGLt^$Yd@ZɆBAQ@FE
	y-X@K.C[lI$(	9o5[孄A@;u4l+L*(t@DBAf#@Y3'@i"v@3#={!<࿌;~ @tT(                                                                                                                                                                                                                                                                                                                                                                                                                                                                                                                                      ?        dk%/?3&?X?6ךеoF?f-}a?8ȴ?3j?(]?p?[\?$%+P?TR΁?M ?2sV?? AS?e=k?  Z?5 dE_h?/?P	mn?&bGϟ?qW{?E|o:?W]s6p?bg.D?H" 1k?%ĐI?c-?9t3?jY6w*?!~J0?-Ee?ϫE=?R=g?t69?6w0c?c*S2?ցM)1?2/AjZ?n?d7x$b?TC|B?<9fS?`K?UfP?u-(kH?XP*{?ky?vR{CkS?F4SU?Է=f?qzD?۴t%?o?؞?svڣ|?wpl?\T?&fK?eDH?r?W2یD?xCۖ?2"a?TNF ?V@?A?@o?'ƫb>~ZB>J>L۠">{R>tv?V?
wn ?A0>S=?ї9?Qf?X7wW4?яD\?A$?aN%?FS82)?DiZ?j=w>VJ?E?1A?Ow?=5^Ae6@v"TQ@<#i?Xɣef@BdRq-ExAX
tJ@^Wr@'KT//Gpc{t0Ҏ\@Mk-J@aDG@k˛ foQ@ -#
'rEciia*@f9*@xOf@]}A6+7}WX<jn@d2@'W6Jy?Bv@-w@sfp7V@3TEpH~YI@hdIG0Q=JaC@:G-@Ub~@qiYGP@ּ]'j?#*g@ aRvZ@ECi~  Y@jFD3؞&Ȕ64tskmC@r[UQ4IB@Wf~?c\,AUv['#@_mF'@"$b7@cug"k>i=v?Tʻ@ֆ9                                                                                                                                                                                                                                                                                                                                                                                                                                                                                                                                      ?        -IR?8?HW_?EbC$'B|?jls`?׮Wݖ?\tA$zi?lm?2~}p? v?~~8?Ң?I$b?GQu?&!	?z.a?qto?
ݘ?gXa8?Dxf~?P4?8j?&3u|?>諭9?aaq?I]C?}Um?7lgaI? ,.? zZ3?w:C/b,?A`1?_.?g?;Q O=?y~2i?19?xe?DHV3?ؙ!ɍ?!QZ?S?3!a?׏\1C?α~?T?J?Q?a(꺩uH?[4G:}?nk?<@:T?VhT?#g?BH?[ȵ$?A +ͧ?"A }?Zdjl?uY[U?~V?ZA&jJ?hȸDo?^rF?H?|Lk?rj?Tw+B?e9jC?(y?>G!r>7x>,8 ?}av!S>`/$n?:?6З|E?D1>l!V@?el,<?GHlf?Q#`4?t{^?~K-?%$?Jʼ@+?[B~ \?&K_">eY]?s	~A?~6_.w?P&De;>@3yIW@AwFņ$8@D\3>y:_R@Vŗ[Fs@:ǉiUA[c2|9^@2<HUz&F@iþQ@w؈Te/P@6]!OT+uDռ(@<f\@Ef`@"d
h
m|B4k	;WM@uO2@,㔋MtP(^$X@U
@Zao8"*)\@լ @o.GI@m=m`oP+hA@8L>@x:@toAI@HI~OsOX@ucq
qj@*?zi$i@ZUl< `CV'wW@;eBQ3F!UbAR9}wE@I ];
/@,&,TQA,("@T܏%@/+@u#){}?y@                                                                                                                                                                                                                                                                                                                                                                                                                                                                                                                                      ?        |`\??/-?/,ͳAPp?9>?Z?ƝN|?<<V\?{[w?~;]?d%?̕U3?ɀ?V?2?rZ?뼩|?X.hm?̌u?4'GJ:?Ic:?C8p?|#?@b>|?BuIi4?KUr?iE5?ʻWp?{WE6?W
/?!\1/?"ܙL,?U>n ,?f=j?b{0?Phsk?160? Ih?_,?~*_?oV%.Y?|il?WRY?okB?pS?=֋P:F?nYS?FU,C?.?AH?FZ
h?OS?\{~G?v>\i?bxcF?YC5T"?b~L?VpYe?>kk?"@΀U?7_y?/;K?I΃l? H?=NYn,?EC*?
zӠ?Db_D?R`-E?S?k={>(vP?u v>TF>y?kX?c>ǆ w?쿅	-?Đ?Ȗ>EEB?Y9r܌@?DDjg?E^v3?0`?ұ?fzbH ?(pHM.?xg^?yo[!>/Ϝ?<+06OC?=R6y?@ㄒ)}iUH?>ʏ)@v0LտB+_")?yA?Rb''@\aU%InT Ɲ @u@jnUQl!d~X
q@:eT0@;4?&<+EZRV`b )%@%i?A,#*Si?k:J84A6H4ܺ:5@`X@W03
2c7,@PNܖ`z19e;{jT @HLZ,@~$;@G0Sq@MӠ@w7+s7Jpc @Tcl.)mntt[&@Pc?n-?:MR@ <X6@ sߪG2/
[@ȴM1@_*_	uhb?T2 g8eA2ڛ)@U7@2I(W@ؔh4V5@                                                                                                                                                                                                                                                                                                                                                                                                                                                                                                                                      ?        `?y
4Ė?Gvï81"֮ WX?2k6?ҜuĀoI?!\S_7?aD?'X`7?xc_A?fbL?Gc ?|蘝q4??i?Ln(1*?|64wcס}\LI9L[{2@?o?<a+?`ioV_ ?W֥>!pM>E.]A>?>U?{}>]+>~?>[c>QOS>ZO>LU> >lIS>n.>vX >KSW?t>Ձ0|>2Q>5	=8>,UM >- ʀ>_<>D'ݞ}>-8>C>>Dhm>w>񴀟ŴszaOAДu1>S>ʣE>%ݤS>27l>H[ĳ>&z*>.Kз?>#Q>8C>Ȉ{n>ϻC>uEO>F׎t>$_,p}>63>?pk>|Zݡ>-~>/U>8tFґ>d~>>u>΀>[P7>2r>k#>-6ډ>m4kDƟ>pQЃw>/>LGVF>="Å>eEOg>./	ډ>*ξ,>""?q?tQ!@GE- \&@gH@+t5ChSY݉:,..+VM5@үEkN0s5{%@=d1@E%+$@@
?.֚0<f+wD@%2!"6@G$,Ĩ@71@[7;;"B5&z0|䃓>@:N4Si8̅j0/@ir]o8@F_;Q3NW& )\Q,?К@4=gUb3
5q28@_vmX>TaR?Ѵ7m/2@y	
5]5@{y=!Ņ&@ZxG@)="8F5n0@<.Ўc<[hU$:@Fm5QsIHm#@8:@4sa+u19Hn0@zxh?tgNT<T6@                                                                                                                                                                                                                                                                                                                                                                                                                                                                                                                                      ?        ^&M-FB?,?ɚy^Q6
?|?Tg<2>B;Ji?E?zb?RV֪6J?jip_?:{en?h0XX?uYW.A47eQ?wj4{r>_>t3i:c^p~Z`?z>G29I?tFm<B?2Gs>1y0?ȩ8?Wpa(?&Ki?QI[Tz>M1|P>b4>@'m>	p%?={_>_<wz?:w>(?nz>KQď14?~Å,j ?۴~O>0qįQKr>@b&]XgFa>Y[u?O2"?$燾rG'>Be>$O~Z%?s>iei>jP?%/>agIS>u>s}O>(~A>]hz{q>%'@Z>חh>dh>1<>	:
8̼vv]>	<=	$b>W41=XOu^a>q&x@Xn>
^5>=MI>@>qD->z>3ZTmp*V>@yTH>D,;r>\YN'[>=S潙j2>(uF>޵A2?&K&?@Q{moEG=@璨 @ٽ0YN qi37>@ǺM^ @Ñ<c˯09Mǧ?5U@G4/@"oGV?mf)  R^c	pMT@%E0?%X	s[y?37-^]
Mm3@3>@f$ 	t@fm}p-,etS%@p8?E* :\*@pgRSlhA)@>uv $#s#@s@t^%1jM"@AULx?gq/j=<9@!1=<(b(約u/!@kQB{.cӹ'?Iy@ %=-~W BpX @h3@&H<'P=@!5ff?Fq?                                                                                                                                                                                                                                                                                                                                                                                                                                                                                                                                      ?        n?i?h詿Y^u?dQ(h?>l@?maX?x%H?GjS?v0jHRJ?C~Q?E,ya?J??ı-Q?pC@?hK?-[Ȕf7k
@?L_GuH4$3?Z? 7b>?ZI?r"`yi)H%?ҫ>)(?, ǃ?N?i?
.?Df?>">>.'>Dza,0?
ri>jXo:	?̟?`>2 N?bd>ZR?h>)en?=Oc>u,w)>I]>Zo@>U>P
>9np?hg?#X>&V>,<#7IP>uS+w5?g><mE>*,>>6N>"}[>%>u>X߈w>=Wtq>*N0>_>#Wg>9^WF>:>\%͑>LL>*DcO>>F>wϮ>>508d>H>NZo>3bEa>""~>~ʧ>/8OGܲ>BOƈ>Vb>^A>Ty.H>UKiG>WtlLV2A` TA0@5| Nٞ-ibd@0I<.@o$ǛCq3 Pg }Sr/@Ly?Tsg&@؏B|*@EΪ 1?@{Q$U?:s7?S4'5@PM2#SyB7+@gBCNwV,;>@4@ qY7Õxa&@59@2$/vn7;7-@1칿-@D5!D&~vA@`@r֖@%'l{s@JO8ѷz?Ͷ=|/@5︷^ſ.Ȗ@N'Qy4x@l>F@KzQLecQ;m.@.J	|%ؠ篗7@;1&/DIs:@F>@bv0=(@f(@cXm+:tP4l@                                                                                                                                                                                                                                                                                                                                                                                                                                                                                                                                      ?        {Dֲ?
3]?s`yelY.v?c[W	?"r3AIc?H=<?f?[?IRRA?K-[DW?<"d?>BP?- ^iE?"}f,>r0*/ef!CpLEhʒS?~>,<=?!l"(i:?iHw_>C7&?5cu?¹Vv ?u/7?\~g2>;#	>xG>	\>Ao?nqoT>,?q`>2B?&JV>spIx(?Phxs>OL?%I޾>)m>Z}#>v>1^%aZI'>"s9> ?>yT?`y8G>}D_ >.ϖA~Ce9H>RꂖԾZN?Z)3>hb:>?8>swӚ4>Im>Mb>"
b>@QPf>S5Z>xgkp>e3>u*f|>Q»>xhB>NjQ>U7p$>1k>L>B](>b\!p>z܇~>k]XpU>S!׌yV>y$J?>>mn>	ua>=:A>U3EWc>oŗ>  0$' N>҃{=d;U>P걵'N">
q`w@Qf濘i@DQ$7@	fyq*A~]9@F6-{?>=$Ѿ1:Y?{Q"+@,oʣ`'kLj@^@V3|86@i6@^Xo1},!@$oH @P7tE(duUR"@ɺܘ<4ߪ&%
@yQPY6@[0ve%-%G+ #.@b{T@&8)WV @ſW`m?xg	?gV-@w#^?zS]70@Noh1-@!%E(+(@y8;AL*׊j1@h0@@rty"s_820Ԭ,@`G&@Bm)@9GA2јDԥ%@24@+W707d)@[K
!y3-ߐ6@                                                                                                                                                                                                                                                                                                                                                                                                                                                                                                                                      ?        џ^?ݣ?ȳ-fլ=,	L7p?F&?[v5c?&}.?QF`?2?^^?pnRd?<cā$?*ݿ3Q?Uh."?C⡉G?fOA;4%?
Εۯ5?~[ZEL>X?WĎ]#?a71F?{:BWPn 1?z?3@>L&$?7th.]> !?0!>6> 禲 >r'>ɦHv<>᷃Ve?kP>3??9V>yw?a1a">!W$?' >@ؘ?[B>6> 	>&d8>*HV>kOl>n?Iau?wER>z	>r
5]>Q~ž(u5t;?l>fZ}>s%:E>ȧ>Pgj>->[+k>$|4>,>l
B>Lf >Y7>3<>.2`O>"ar>OY$`>4&]vi>RtCU>L->I1>nq,x>Xe>cvA>|63>D>b{>|B >9>xbޜ>jӁ0>@V>w+)]>,)|>OI=<Eоa0>]ZpfTi$:>@y
]H/Z@Q]D;1@/~7_f1>xzOR@9B^s@?Y(Uq<c\%^@{U
G@мQ@g\fn~JR@f 3BF<=(@8q@*v-D@Ȋ/pq4Q'
<'@@2@~J?SL4
I'z31@}OV@N̬Sp0\@هc)@(@J@iQReZn>;@h_}15#4QA#@ܐm(@WiH0]r"xS@s,aV f@oEic7SC-b@R]3L8OTY@LTC6;킎(?c88+JD@E5 @o<&"QQAs:"@%@+J@B#Y:# 3H?JR
@Cf                                                                                                                                                                                                                                                                                                                                                                                                                                                                                                                                      ?        l2(u?qm\k?&?ǥt9?}Vj.[?Q:͗?xB8`?IW?t2;wc?Z
u?խK1?U???>#?E39?54ya?S?pMg?gܓu?IWzd?Mk?]vS?źZ]?aڔ|?t44?xH1r?P8?0;-p?3=?tZ(,? ҷm/?j[*?4RI,?t+|j?.,|2?%k?ޔ1?.i,h?G1D-?ɜbߎ?-oBX?Mꁅ?%sZ?АB?҅R?If<^qF?"KQ?32޽C?юna?*?*YR?k3J?
v	h?	kA?S@.!?8{?[F|?J̘4j?}ԘU?L!? K?%p?kv}H?Y?n$a?am?aiWC?R>ZD?Sgn
?.>]ol ?9؉>jޅ ?*<>{<?L$8?Ik ?i|?>͗rٴA?k??՘g?w2?] p`?0?^~'!?18"r*?Q^?AN>ѣ?ckB?;M2|y?w(@GX?[^#gq1o.@I迮RsDz?8<5T@dV_1@w¹?@S1{&)6x+n8V,@n?V)?'D<@eܪ@8MT"f?b2@VQAcCw3	s̞@<U@	mI '8@uT=
@e.W2xD{@[^>3@X02.A@Ȥh''!DJ)X$-1@yi30\e-`@1L//3@p91T< Kb*5@pÓ;g99yˡ߃!@dpJB-t˶ʺ@\ɸI@ C`*ZB6Gqў0@u_9I1~v"@+ڛ(@ŪM5I+w)@ĦA7@|jh09f1@	%M{+e!5@                                                                                                                                                                                                                                                                                                                                                                                                                                                                                                                                      ?        [8w ?m\t˯?:^8=l?o7.+?Cp?l/Hr?rN?>./k?uokR?"Ŏ5g?c	%x?@@|2?ig?@=?Dhr5a?o${v"?R,{`͡`i1]?`?o? 6)L?WOp_? 7Bqe@=N?m->xQ=<?ۋmĀ?_=>5?@+?3>8>B3>3w>+?SlX?E8nҎ,?(9Q_מ?> 'A%?
>ciC?\8b>ưt2?Xt%?>no>c>!0>$>'{"?姛)*2?:S>BB+?\j5ES->uھF=8?br?ߴo>z^?oʑ>?sR?x3&]>_ ?$q>KAxzk>	g >wӲ[>.D?P>σt>(N.T>B>HII=B>?W>(n>d|>[E >M~\>;Ew> r>]^>>EU?v>tQ`I(>6=>`>xٞL>91b>ELS\>I>pA=9FÏ7I?b.m@k;I?:"}8Yz2lC)(@NI=
@Q)fCt':f="@ѸG-?;
\=G;@o?驯.L3@"
?/5.HB	@@w{!t{c$A'@}09l1^׿=A-3@/Kϑ"m?Qd&@vt@|R-.˲D@m	4W@%i	;Z'(@-@i	Q4!h^!@!;[@&@.Ub:!ߵ+S/@El? ]2o@!@}4˅@@,%k5-s*@jf.S +F2H8۱3@P%hDj֯V"@52@wʑ.S_;2@ά<?2~xC8{p4f(@                                                                                                                                                                                                                                                                                                                                                                                                                                                                                                                                      ?        >?@7?vXٙyxDm?:2#2?F{
Ua?74?Ƿ]?yއ 6?˟N2[?_v>^?Q%7XQ&1?tWF?-M.?{=?3ob#ax,t֦z`V7qO?7FL/?JL8?߶Ram+?>?>x9 ?znF>7)Jv?FR>5q>#az>r˹5{>\G2>:R?VkF?>pI?LA9>H$9?n~L>?*̡zZ>5?>[Zl>>hk>';>vJJ>	ݗ>.y8S?k>,8>TB!>Æhq뾜萍MWee?U> D>;Ru>+>N2->)0a>-R#>a`ˊ>urU>{>ͤI>4>Y>
umQ$e>Ma(r>Oqv>{^e>s$ʈf>#M>Vsh]>Q9z>mw>sPoy>Z
tK>鋸Z>;o50>ͷ>YC>f@b>r4]u>D;K>*e &t>(4>M{>=u.9G>Ya-cR([l?@t0T@OXF9@eba 2ZP貑81cQ@P 9rF8s@pG1W8:b}2`@jV,*	E@^PtuQ@ t;ۈfO0P@`T#"J%D
0+@貝@!@p	;(Ȉ4?(W<|P@]ē2@K+cOjXW@q@l?lr"ZO[@;L^UVK@_bEQ$sD@謢E1lB@;
@˛tas)~JW@ofrb)b~j@{+r`iA	g@ |MnS]xoW@ޮ$(C8!A7˗E@o^;s+@ŭ4(%A j3"@,}d=&@E.)@#Tn?wjko@؟f                                                                                                                                                                                                                                                                                                                                                                                                                                                                                                                                      ?        oXT?'Q#n?Xg6|Z?iAZ?KW[?V(?T~L@`?Z?nIWb?ݔ`T?z{?QV?/k?8!oIs˂?#M?Goο?XSm?<cQ;?T:͎d'?eq?|E_0?Y9#2?m!|?#4?Su1r?Uj`t8?cgQ<p?~ŵU*<?m:.?4np0?.-?r6.?Y{j?NP3? |4ik?ضD2? Ϫh?=n/??$lI0Y?蛅?)M\?NC?GҐ@T?HN\F?pS?\BoD?X5?5)'ă?^\enT?J?1Zxi?JG&F?L"?IbXk?/M?ֶl?ubtcU?V?4K?-<?4_tH?Ѥ?<lf 	?~G0?kT"D?D?iE%?8@*>i'?!>\>"N"^L?e}&a>?=:r?Qȵt;?ۼ+>6uFA?@#K@?F<g?Ѽ.3?|n`?3?9+!?-?7٘^?S>u^M?e]C?T=>y?LD8Ik@AP@E6
pSPMfFAe?:;
@"<6M?B}% }K$1#e*@]5(:!@.o
H@}1>@Y.#0@dN@.5*B+x%S K@<@5.9Cwu3xs4]S.@P:q8!@uƋ0 .#۶-h@VT磊@(xm!@Yt{w3*"@,ZĀ
SA@[Y?/&cy@c,"@#Z..@Wf~282^Y\/@X&@j?IR5Wt$@4@@eB:jP%2-HSQ<M4@Mа//x  > 4@:w'Q&ѳ6CI'@e+i+1@! ܾt6X,z1@\CmC!@b7wv'@                                                                                                                                                                                                                                                                                                                                                                                                                                                                                                                                      ?        vH̯?qH
bF?ْ 1
݌?8Qo?;:' ?_trPa?6-/?,H ÷]?5Ǒ5?|	SM([?ON,b"V?O
?.LA? Or>Vb좓9?EEcJfi7qGL?'z8??ߩK?Go&?Ae5Kۤe/?>b 4!?
|>	t廇?"Ep>-ȱ>ڷs>iJ>{5>9-?[!i,>N
?xv4Ә>=m?f5>A}?eyQ%>@Mr?mI>4Kp~>FqfB>r'}>hy>,>6n ڟ>m\?>%BC>!),#"Mߚоgc.u>H,yp>aoP>lm~3>!v(>	.>o^ >HX>@ޫq>8je>@W?st>C
>Nb>yLTh>iw02^e>ru%P>rJf>J[&>&iR>-v"|q>6Nxtd>f/v%@>s᫽>h(>)3>͑h>z>]gR^S>;cЏYf>XwH~>'hP>Wl>X>Gמ>#@ K@fxLMo&?r@'e@k5	@?+'0%Wgi;>$@s@4 @ͽ89s!n濑wX#1<2@Td@:O*=XɎ#}c@SV}? +@"yW6|BI,U0@l-!@\YC#yӵ0fg@ͧ-@&r0?F#3%!k
^Xڦ? ]@wĦٿZr~"=wR@t+@ݞ<GG!@%?ߕ8pqG0@  _^A@wϏ&K{!R$&, &vW'@m0J @G,@L	f7Zq8Dh"@)5ap1@cb>i()&-U2@[$e򜄤/g]	;@                                                                                                                                                                                                                                                                                                                                                                                                                                                                                                                                      ?        ?q?u~ ?|ی@Q>U?Uq?Pyh>0|)|g?m>ĩe?+yl?MGy!e?e۹b?v%:֗>d)U?F(>k[ZQ?CϔRf<,Un@}0/P?y~wT?GOu>è'D?}jA5Yפ1??(}Sڬ>ddC(?c)N>BH߉&?!+?G>l".>Hpܥ>Ɂ >5Av>_Z&"?3~L>FSsf#?Y&~J>HV"?C>(۷X#?&Jf>i(?񔃒>iҋ>b^>W>o31P>>z$?˚?ʁ;'>7Lö>꿸Y'7iV7jkgF ا6?9.P>e5:2>Lh:>#m>CL:>15|>FI>2D9(X>qf>tS>ڦ@>j2Ո>h`oұp>0R=H5>Q># _=k+PR>ᙞ"^=hT-b>ɛv~d>
sjкtR>=:)|]<>_Z>h>/n>mip> nL>_W`>@Q_>F;}|>u>=;JdK>0'Y׉B>]eM@V L?4	\X۱?2JM?Em?]IJ?pp#N<h69@Z?Ad0"@rvdF4-k.#3h2@@P][%@%1M:@
J@Nm7n"u f=3@-6"@S]͒&1B_# 	t;F|mD("8@E]\ݜ!@T35r91#ЯST1@E$@3!@_uNgسz@3?Hr%	vAS>@d6^%Hm=E(w-@\NU7@?NF'hD?6"@!#7"@BA5((5@*ΛMF@l("nED:7sT
3@֬}?-DO#"{P֤ͫ<@HV61EZGW:"@0ElG;8@#49.@L@V}=qjĎ6@                                                                                                                                                                                                                                                                                                                                                                                                                                                                                                                                      ?        b"B?ӈ?[sn=*ߏjv?ym>0#d?N =:`B?-)u]?73SF?P]X?xe%[?3H8SD?G Ek;?|ܨ,ys <u>v⌝[tާmKMN;o@?RBl>
'?mWJS瞈:?6a>W[>('?>b1?&o!??}I>B=ȜM> +1>{@"?re>%hA;c?.O>ĖV_?^nE>r ?mg\I?~|VDc*>iZlLiC@>._j^JBF>[c>\?A1KV>g^B7#t9>FXٗ2t?N_Ҙ>?)L]!h>n'" >7>_[Ծ>%>%}R`>z6bQ= ;*>->h3>|T\>Qr	>-25=f=X_jA=<WR=w@=_%imr@>UOCh=N)=PZ>O>3>wei+h.y>ʧK=U>.L4x"[Q>QNvMܡ$xd=GzrH3XF>!ok(zF@SЀa@&WFO2NR9@IA^-V8[@_dt@h9'ٌYи(d-&b@ I'X||A@ZG79`U@ fqDdgS4&R@k3lb$I.GK#X0@-@ ?yI	W1' 7T:@8;')1@OHq;dz:7	 GNQ$@m0@>БXvOΈd@I,h0!@mAB W@8bau!`a2f3X@-qۏRX/ՇmY@tXe@ϸbgLup\@3t2g uIr@1@IlsXzs@RDxpuqZ@@bEBl=\"5Jc>jDaL@0"F(fo>@Q2i<e@$.k!@LG#@⇲,@M	$c͕Ut	@
B|@HUп                                                                                                                                                                                                                                                                                                                                                                                                                                                                                                                                      ?        b`Y
?|y^?'M|?ZD?IE_?]wÙ?g Ea?ҠCw?@D3c?P\@{?#zy2?$)?;?^;l̈́?pm,?+c?ɸ p?<
?œ1Ok&?
Rp?7U8HC?6p}?6gx~?GhWN8?bG(t?ҞM<?<:+\r?_??362?{B3?[52?Ϊ2?9=km?T	C6?Cn?2F$5?	.MMl?0w/3?eǢ^?X^?C?Y.8
G`?a@H?/DX?FheK?W?C|I?Dj?
p7׆?*jÄisX?UO?{qBo?x=I?-z+)?tK ??^حwSq?jW?~Q?4χO?W\/?(4L?$?#M3^?yL?O
nG??˯'H?{Yy?ls>/VZ?%9%>wBbL\?$|>yt~?k;g	?ڸ?ަ>S71MD?GusC?`	.k?rnL7?x.c?E"?8Ɩ-(%?1ǳ2?ezCUa?Fo E>D' ?LuH?Qc,~?@=B/.@(q8l俊ST#>4vp@_L޿8n_XG6@7>@)e8Y*&6E4sPo@:C݄@L+@0oǿ& xu;oI3@"2:Κ)0/hw7@ }ڿ-H#9g%@g5EF#@8~#'::?@%d((,1@yq? Rjd(@`Ѯ-	Cj)SP=D5@7oFҟ_T&\ z%@ޣu5!&I@ҭ]W?e#j4_76]B@{~D[&@*@e[=oc@^@꧞k{KTpy&@\,pA>@ʮ%~L'!`,@xeuF"p,٢?@W@y00!1DNquk)@ذ0@DPt0q\`0@=!Q"!:6edhC6@                                                                                                                                                                                                                                                                                                                                                                                                                                                                                                                                      ?        3ѭ?0n?˟r5. ?EaLs?ء7?dg?=φxA?q/b?(lIE?o`?I̮شm?g@:?Ӽu [?cz]v;?\M#S?;94A@X4?MZcM?(5; Q?~QuTf?Sf/ :=?R?o.blO6?f>c@Q9)??<Ϭ?\i9 %?jӜ?._yI>L>>1?>c܍ ?:%Pih>.!?>7.1>?$PӸ>aw
0? KT><?
V_
>aA]>~ $>Z˝->2+=&<>GS>;szQ?g{Q+#?ߢܖU>k8f>{m>-pܵl>ԹO8J26(?JJkS ?DL>>`m>s(>u.}>-?>z>8>B	)]>T>%~>>{j7
>.xd>K,c (>?R/t>\$u>I/r>(>U	>omzS>۾Ή>Xd>Û>xϕ>
RCb>=>\fg>.5T>Ɲ+1>.u:j>r*2c>az
[E>\e+WOǓ>JU=mn @i9@	+#im`3822@f8X.@@6G6ҙdP3cB'$W+^z.@ {O@$"p?D $@v@w, A@YLP^_MQ<[&C @60)F3@N"3/-Ůt:@"=D?1r<-A@8-"8R6Qi8@y1@6*:?qSlAo@k氻*5@J.=PT@\{!@1}3q5iK-V{!@@*2_`&d$['@@F)vڿvk ɽ|G@%5D@KXF'7
,@u
eꢊN!'O 7@N#9+H冔j?@D=@tω30ȼ!@Z$$@ ЯN5;1?'@                                                                                                                                                                                                                                                                                                                                                                                                                                                                                                                                      ?        Be??^J?7gٶ{Z洿ujf'u?3v>՝nc?ˋ18?;H\?vV0??2d,W?_!ai?A\>[WT?	"<;M?)5YFz,0_>;b໓dx\_?rL?^ H?kMoKR8?Tו#z>js-%?E;p0>#B ?bb#?eZk>Fo>[fIc>27,h>{AT?VP|M>g'2$?yFf>l;j?+׼>x-?m>|l?n׽%z
\>I{>q o>g;X73>4V7C>j?}P?	_MM>L%m>206>zv>&c;(?C!?_>ƶMƂ>sI>;7>>G0I:6>.@ >)M> T/>[bSU2>e*&>Ԥ->i}O>ѵρ>lAMq=r- >A&=X)!>V籿\=,2&>J+>!2L#>bO0>/:^k.> i >	=w>*:Q>U$>A ) >652>	A>]
>	%=g):δ[#>^$(yV>ֈgcgA@kcm{T@VvX?Fzv@@z?1)$h=g+V@ᑍ@t@ɌٺX*ad4T!*a@al8YL@ p S@m%hpWwR@jխ"PFK~C)@H^!?@3o @1R0,7fW:\ @	?Jf1@[ie	.Ur݊mg8ϼ1@8F"@A nFM^@0T:YR@mbjCW=/R@>WX6U@hlO@hVtc+[@(n;5hg8\cp@,âhqz$Xr@i5%nZ@ZUD3H+#5덣P='#cK@ךBD׊}<@ۜg:?@x "@9%@x@؄!$,A:@ "@Z^V8?                                                                                                                                                                                                                                                                                                                                                                                                                                                                                                                                      ?        B+?S?v.?/ñr0?.f_?tl?$a?3#?3ɺ5/c?{?ML`U)?YV?P|o\?,_{?&P?rr?q8p?d"?t?f<mkfV?A?~?T Pr?G3}?ݞdP8?9Hs?;?Q>q?l|X>?>L2?%=LR3?I-1?CojT2?F8Pl?IW865?	C|3m?)X4?.|j?kU@2?Ic?UG22З^?Yт?.`?^G?R AX?(ZJ?cW?<kH?"2?+YC?4`0X?!@߮N?n?) J?%v(?:?Xk?^p?n,=W?ާ5?EM?xË? ET#K?.?9?G2y?tE?z݅
F?P?aqX>sH?\;KA>?c}t>\B?\UGn?ɤ?@M|>%5`C?lcA?3')ai?@O̰7?4b?i)(`"?a5ń$?@F]2?l`w`?%Va>?5`lSG?n{?.(V@tשun`y@tW@K?H7ʨE[ @Ĩ	3<ߞtw=,w7@,0n?@T\1$Ss@7 R2@*x#~@@Ę6S@{!=:՚eΈ8f6@77Խ'@AF
([+>@?"Xɚ70x%<@"7@j(NFX*@qFNV<KUCdzo`U[*@zE$)RŌdFz'@.zz%N"MAPx@]_.;4@I>@8w Oqe$ g12@uH@!!&Zj}9d"d1@H0
$@x\8@9=lmoI<>Axz@%@8B2:@'`q0`1@I%`o`9L=@                                                                                                                                                                                                                                                                                                                                                                                                                                                                                                                                      ?        (n?	=?jlu9Jy??dR(? 	NLj?^;IEQ?3c?U_CT?`?>?JLq?O5?#8[Z?$?&1B6Q?M؜{Cs"?ULT:bʏ2fp5(b?/^mt>	zJ?;CQmw\G?>[oQ3?^K?;+?ؚ)?|>VW#>n>B>L: ?ּԯG?j, ??w?R]?Կb>kv8?̑> P"?xd>>c>@3>@6>g<0ɾ>Kk$? H$?ʏ0ۼ>f
?o;SS	Df5]>7"ta*~*?9<-><>ϵz?@|ק>kn|7>`=I>>>Rm׊>TIr>Cה>Q*xJ>߅Ii(>C L>iD;V1[ӏp>ن/c>cc>~M`> YZȗ>_٤>-z>4.>)$Lɧ>$1j>(*?]핔>ilU͋#>XEx>̀*ɪ>k>b>m>>8O.|>
y;"<>i'jzkD@TX]@#9ۃnL\
6@d!$?JW;0lKhYX@_?~t@hz.Y@_exUba@g'UzD~=~H@OP@ɔ4`Vh\MER@h 2#SF7Нֆ-@V;h@|@b`,4;t~d@;_1@"ѯʻ!9C[@/q7@E):rVwa@@&zQ@%N[G*Q@	!z}\R\LpT@+9G@X|tTG(\gY@;xds9p@T~ݠpg	4p@f/|j9Y@kDE"b=;IUxJ@\k>Cd7@17Z8DXy@k"@GNL$@q!@R$# @a5@`{?                                                                                                                                                                                                                                                                                                                                                                                                                                                                                                                                      ?        /!A?9*{?k?ޱ䶿$]	5?Gx]?BPjq?홅	^?jW?^?;?c1s?4[?F~ ?Tofs?
t8?Uڔt?MEӌm?^?hy#?tSW?8ZoL?HJ((?n}?tEٷ6? 76s?mVO7?]r?6$>F7?I2?D%2?,q8?1?ɮ\1?R=m?xL2?cTn?X/Y2?cl?7 Vb1?'P?Ӽr\?((?^!\?  F?KP
V?cI?nOiV?OJlF?jˈ?i? S\V?*l	J?;Z͍$n?NeSF?R}'?y.?z?2o?&rW?቟$?mN?NJ?Cs]L?R?4M)?N
?rF?G?Kn?ItT>?l#>?;B?衖>eFϷ`?p Dn?n5v8?tR׵>t+:D?;B?3Ei?#5
6?oəb?}o%!?@d#?ᄰz1?#sa?,.;> y>@?(A=UZG?%Q|?'ő4?n5?,ɽ@f[43@@4׿P6p@?H?4Jo1C^x+@*9D0ؿSsֺ@	@b=Lmc2@lᶪ?Lv-?	Q?9:Ȇ!@Wl.L'ō1ؐ6j@F,8]73;W2@bX  j
%2@
1N@e@U(n&8@S"@
$-6ޱU@p1@ʍ*0 j@;>S@[Q=1@B-_f%T%oI@\=@iO:190@	=@11P91O-8VY'@6G<{cgOA3L\1@JQv0W\ԊBDPh4@GKE5@ց[+tf @DX@"X˺5J4@                                                                                                                                                                                                                                                                                                                                                                                                                                                                                                                                      ?        =?`lƒ?_Ӛ
-koU\b?;<{>Zr^Y?8ԧ>.׼͔V?o>T?0qL?!>Ed	J6? \̾cXos&?,7]:%;#d񾠆9 A=cJ~2~@	6?Sm?zP!?3P"G`%M?^#є>L!?<PT>uݰ?w.b>>I^>1LN>GKszg>-7`%z>:w?z3C{>9?)Q)>"ܩ?>r|SG{>ɋ?ɏ8|>l;>݄&L煾je>:V@ >^_n_>$#i>#  >ѓ=R>fԔȊ|<ي>rnr$p7ְ>G>W1]e>	W>U7O>7>#0@Z>Kƭkj>ygz9>*8>4\h!>,ڵ>tۣ>#DZG>D0G=+82>XW=6_m3>nf+)=Xq1><Ӳ0F>,x>?7=7У>>8Q>gP`5>k)>|,PO >սm8>Voc0P>#>wP	m=D$>ϩԽ"Ѿ	I>=}}xf&@ ??L,a?0~p@f	EWfBZ@gC}*smD"@-,@1mtz4г?ە0y?LXTUR%1@y`^?
D@Z+ j]{"T!@2ALoېuk!@))6IʳY
"2@s?:%z:s@ׅcH6!@DVt'+@jU?R.CQK.h@ẻܲ??YO<@6\Zz@uѸX"@@e!@TqFDV
%=ۼ'@;?@Pw?#wvQ$P}&@ʓ?2Ŋ$@ab<2J$@dڲ4"O{yC8"0%@i+@a)ӗ#W!6@nT*5P1|u(p9@                                                                                                                                                                                                                                                                                                                                                                                                                                                                                                                                      ?        &?+#?U3'ƚ4?0uSAr??&?Sw:}h?Lk&?e??A6+?7v̙cd?L.@i?wQ"?RcԒ2[? %"?wPU?xaŪlijQ8?	C N?U]6a?*>'?#P?_rWTK3?|?>E}(*?+7|>ct.I'?,?>[>B!c>҅>,let>e#? Pa>'5n$?B`>\&N"?#y	Y>[$)]+?qH>X>?nyY@>gF>5g>{Y>I:>)>K5\?FZ"?$n\Jv>1> a="HWF_Ͼ Ͼ-3#?H>cĥ>y>iš> ly>B>-s>L 
>U7IǕ>fT|>=oI>>gs,ah>>>X5r>hSN>vosMo>kvE>dبq>U)'ח>NUoBҳv>dҺ]"nU>,½>Fx>]?d;>'aCd>QB>ߕ~_}>[>>6>*i@R>4w>;Vs|d>i؅f%iC@Y@B09Kksa`8@5Kiݒ3jT@Qs@oTXTrU$dzM]@XXMR&@ZiF@b{kM@M,̰he4=;\P@O` Ұ%ǈzD)@пq\
@J{@RX160*4<p@@O]-2@0e̬-׿ŕʣ0@2@"mpB"
@`@,s~@OeÊSO@`HYiT@aNw2C@P4^/@`,/Pr93U@0C="czɭ1k@AUjh@9B]~_֪W@y<DUT YÍ"9iYD@t&8:Pf0@6d*!P{AWX'#@?^p&@^/Q@hd#wGm5$?B+J @$5                                                                                                                                                                                                                                                                                                                                                                                                                                                                                                                                      ?        U	b?.tf?+:v?I,|pY:?>7pf?rm???'p?ܡ?(:u?>B7x?m!?Oto?-nG?j4ˍ??͢?eN]q?GNՙ?EV"^K?bO??fڥ?]C.P|?#ӵYA?p?!6vJI?rdl?8f5P?7)2? Tt9?gڋ.1?lpHC7?>㽷f?3B?yAh?.Q6@?4]d?Fb.8?{=w?}
sa?\|J?271f?5e cH?P3`Y?gyR?no;)U?JwEؐP?ɑ,M}?(K[?RFZ?.A[?ܱj?NwJ?5/?+q;?'Ђ?6ar?YhU?lpo?;+BI?ye#?1˴E?<H?	e?*ġ
?1gOA?~{B?:wܝ?܉̓>N>?42>92?.l}&y>b{?^?xIl?$k>|ݢ>?Lqw;?-0MF\g?ha:?{Z"^?"?rnom,?(M0?nyz[?uǶK ?+?/;C?轢Ky?j8Je/zm6@-˦W@5/g97-dC@O#,ޏjDPIܹjV@@mTr@'
EV	5caN`@ )S;E@@}sP@gx!V2P@`݃&eD٘T1@<@$@EƈdZ	@N~+t'7!@FN<L	@]52@"<ֱf}XM !w۹e@+dw@(kgpk̼[@[&OyxX@$8pWSQ@.[yaLL@%HtR@_$sKX@VMdK[o@{EG+oZ#Hk@Tci__.c6W@}[E$b]2Pa7'=wH@r~Ac]/@nM4*rO~AH!@YK'@*X)Z@dd$VFBGD?ƅ@1͝                                                                                                                                                                                                                                                                                                                                                                                                                                                                                                                                      ?        5/z?>^?I3ش?X絿ꆕ?sAJg?UK?j;t?!;'?U?z?fl+[?J?/?}=v? pB?&CЦ?4h?v?$?ט?`]?l ?9Q?~F?}ԥ|?*%YA?bp?}N?p_Cl?
ES?&WDJ3?*QsmE;?1S6C3?1S9?kfEf?mpgrF?VuUg?sA)C?AYyc?]1t<?u
?]l頶a?FB >?NEi?pX<I?/Z?3S?4V?!Q?S)a\}?h  xC?[?Hh`?P\dh?g:OvQ?B+-?/#!Ѡ?3Q3׃?#fs?	U?_~?6I?>p+'?tE?=}?P}?sTx?U	A?tǰ=B?ŞP?g_>n$p?SmQ+>?:>RCLT?ȱ'?( K?GZ>bX>?&,:?~g?@߇;?K0b^?zKbtZ#?p=/-?3rbn_1?g~[?k۳ ?6=?fv3B?Y{y?GziY||yC@kp\@ʕC:JJ0_n;@nY%?@9~V*Y@d*~t@ 12SW}AdS7`a@&$ZUeB@hD=:T@7nfccQ@QЄ"9I;Eά.f7,@eh΂@&&kR@gxa>e4䠛;7iƨ:@끦1@]\!hx;
)jwu@Qf4@@=rÚPa@jn@?cP@x ?XTJ@2=EPi9\=@$۩@2\s8FHT@l[vb<6k@u^i
Cf@".zXۄW@P>4C{e?"rK8,SnŉF@ >\Ac(@7]J9"ibAܐሕ"@&bס$@pFY:@p$3֒5ȣ?4>0@M^}                                                                                                                                                                                                                                                                                                                                                                                                                                                                                                                                      ?        H|?R 4?m?x$%	@?kI4_?WJ?gxhd?uxϷ?kX?h?Gڄn?q[aa-Ѵ?>6?t煛?KOY?o-?E?fk?~~;ݸ?~O" ?fD)#?鰯\Q?\a?e#'|?v7?'ŏr?k5<??q)p?wFEMB?4!/?ʻ2?hp̺-?V(1?69&k?u:q[8?x˽5l?t&5?*Zdci?,9s1?xD܏?_bKXZ?@3?0Oz^?VC?I=$zT?YϹdJ?>S?G?{?q72?WJT?\YQ?8)j?$TE?+bwMTh&?ZFR?9E!~?i}Dm?uU?	`XF?QkrL?
?~<oI?Tg??ч*"?wD?JqE?Tm?VQ|	p>I^!?n>	C`u?f<}>yj6? ;6?/"?O^*>WR/pB?o!@?Zah?y)4?/Va?-8U?>M$?7-?˳|_?_.e>؜b:v?93D?$*%{?;0Nn3[7E@Xza@(PON"@0@n'8!<*331^FZ@B5(u@!XWk_Oef1g}a@8uSc-=@4ehfT@g*|3eaP@* [>*Es*@xh@r@MGΤRqA0km:@21@,.U'B,`pwfUxD@)/d@r䪒3v\S9<d@Ct!@m $7V@{Valۯ)X@WnWY@)@gQZ&un~Y@gCZr@gL&ry
r@xDPGo\5ZX@d'p|D}~tc>䙧U/K@ @XEVJ=@
V6>x*@tdJ"@Bj2$@J@uR:%i$\#@xD@2C"?                                                                                                                                                                                                                                                                                                                                                                                                                                                                                                                                      ?        :o?zɝ?|䩶.?T+I(@[#?/`?<D/?UoRi.;b?:R?i#ְc?+}?qv:U|?Da?/%?fg`{??c&y?@iG}n?\*p?CY	?JSO?}jS?cݥ?vnn}?75:?30)zs?2<?Pﾌq?__j5t>?;;&Y4?Dz4?nh3?ޓ4?gul?ktJ6?m?""*5?rEamk?O4?Rױ(?΃_?66?Nm`?p yI?T>XY?lM?Y?LEJ?o(Y?.bޅ?;Y?_O?#3Xzn?w,
[G?1J*?&?2?}q?A|V?7D?E N?=?j?3%K?~gHz?UFJ.??dv`KF?OVG?\?!%"É>gd?>	I\K?z0g6>H	?%~
?BN[	?ĪN>\fNC?plg8B?Si?Z8?KDmhb?BȎ#?)pc&?ZmX3?x `?㘯>4$!?XKG?rE7s|?6@Z?kLnW_;qX琦
@XQCD?7Y
,;1X?9}`~F3@М=1=dPV#c,]K@c
n@2 |g7@ަ4?Gj2(4?Gݩ'@fK$Flj߫SÁ@ 7)379Ho  "4@Af|"(dF@) @#졕_2@ܹ˽(?&@LO%r5d>@^-/@<~a;EE @ћX15@LR/(1@;?\SP^>+Cʝ5@KRCJyD@n&g31#5@){a3kR/k)@@/5}BEd'@SY5@#b6FJ4@[(
@A2}?A{!7@                                                                                                                                                                                                                                                                                                                                                                                                                                                                                                                                      ?        ױ?cBoa?߳J'N&'ru]OTs?`?gd?(t@B?%_?NcI?-[?,|#{Z?)>vZH?Sm6+A?%Hc,־-5	B+7sA?CA>[C0?E7I5@U16?"J~T>N5W&?g=}_?*^!?gP?4y!>Kkruխ>Z奄U?-?X>s?+U>sJ?d>?t4Ͼ>Qbtf?jӒOI>ו)y>Tϗ 귭>ٍB8>yB:IG>È9L?u]	A؀Y٥>@NC%2>Dx*7f&bp?LUN>D>GPB>`0>I<>V:R>2|^>*mz>vG8;c-ʢp>NT>m>'! >8mm+>]kOuk> #>;Un>&koG>[gda}Vy>87D,wW>y ރ	>G,\>K/x>FE<.>ǜ>QS)b>jGp>C4-	t> ٸ>}+DtI>la>m
3>|]f+JF_9@"Y@Җj@ML!,@?Xf; >.m9sTR@Dy1r@4U⩂,<b< S_@ZKI.QT>^xB@PJ@3sקdf9;R@qk+`%#^I+G Ve0@Q1@2
@{<-{D2Bz-<kh@Ÿ2@w)):Wș*o4"gk	@#@'pB\@BȰ@'Q@`$j?T2Pq@@;Q@>HH<@T=ݖ~@(p r:W@8pLa@ći@hdf&d@7^kYEdFY@ɏDd|l$!}7lF@fl@t9]@`"5#fxWj)7A"@]3%@_@TAmO#zaa??:@6Ƹ\                                                                                                                                                                                                                                                                                                                                                                                                                                                                                                                                       ?        _M?Pҫ?Tkd?ӭUu6H?n;H_?YR~	W?u@}%Yg?m]eM?}i*m?Lf ?,p?>}u#	?Fʟ+?:$K?Tf,?z/א?a7e	p?v냞셚?*ޣ?}`?SW\+}?\5-?$1WFV?<l
9|?`k)M8?}q?f7A?y\n?VfF?%a-?I2?참++?r|i)0?ڕ%h?گ+:?(Lj?D4f7?/{ f?'hG1?K?h1[?Md;?5a?C?.TT??ruJ?#.>D?R?bk1S6H?h7z?K?4MU?GxS?#?&"i?/eH?79j%?E/?5?tJ*n?ekfDV?1?/PĈK?A?
G?T?0rv?E">"?JUC?[2D?]?{>P,g/ ?\XI>ׯD?>
J:?r#?G?9>U8a
A?	<uЩ>?'?>h?/F5?VVzN`??R$?K c,?xT@]?4&q>b5?@wAC?]3Jzfz?qK$cĹm'6@w9bW@=+^C(?Y?wfrk,T>@sVq@ߤ_OR2^a TJ5V@L_VQ-1fC@.O@JRa(CUP@b·sJG)nD-wBu%@u??Dĉ`@uѽ?Bsq6m5
=֑g@I6bk3@1I_KM
-S翦[*ߪ
@M 1D@kj5UBV@]bW0@iC@OQTA@@1HB贄t|@md@2o5vP@WF_[%a@<wC]UؗO@ن5@"r?!X@s ;w
D+_$QQ &;5		,=@[}!@GhnN@avA\2Tq{#@hMu(@Dn,>@6!-ƪpJ(	@$O`                                                                                                                                                                                                                                                                                                                                                                                                                                                                                                                                      ?        )?j<t?2`ر?v{Lw=Ӎ>?/בe?YiV?*wKq? r^?ʞU?u?6!?pAsٲ?N?-{~&0?kVČ?um?Ģ?4p?"?e7OvYy?4PS53??0V?&0כ?j{?$RsI@?j|Ln?sw7J?ݸ
g?v7'P?+HL6.?hC5?X.'q+?W"2?oD&b?5bRHA?vPF)Yd?hhջ>?_wߓ_?F5?<w?r")^?Vx ?.e?NozD?L\_T?鈝P?8lP?V()?L?8	cKw?LE?T?ЊZ?U<Yd?-uiI?H(?Bݵh?ӆ~? o?MT?!?E$0G?覸#?QB?w2
?BrBm?h|?t;<?<">?X@N4?
>4A\)>u*(>%_3>B>?r$?]j?Ȭt<>)-P>ûs9?b5?]x~e?Uu>Q'7?J&/Y?;;Y?7i)?ҦN(?~xW?|_>?~:_{>?4v?z(@ۢK?QRvpB$}~QT@HQK<~*6o@3P:s	n=>5@Ʈ(J@u:0-~?dyXj/@`1$`NP*_86@3pb?`v`3QrL&9]c.@Ɍ_`i-8{@@7tŘ~4@;@c0??Kq/@Āle4(*WU9@V>-,!eCR/#ر/@A3
K1[cRxnc6@9)3wҴC %#@ET/@1цO.9@!P@Nm8@}fSO0@SV`{9C@j)M-yΕ6@|9~+k:@@f3\H[jD<^)@T8/@CE7<;@CH@a[xAnLe4@                                                                                                                                                                                                                                                                                                                                                                                                                                                                                                                                      ?        %|A?c$?pVE᣿tD[sv?%j>td?|gN?8g^?@uR? #%Z?h`?@{糾7;q\J??dJWKC?2͓gTl]s>+ұI+Ƌi VrH?-^n
t>U0z2?/D`QB:?Fm>(Ӏ(?Q1r?}";"?5JZ?s>1Eqy>׭7&I>/w~>{pHeQ??Qb?N~` ?؁]?-梁>6i#?Bdww#؅?w>2}W>MXxcvP36s>^ejLƮw[|>^> y?Ӂ>ZC>4pÔ+X>VO{iħ!?mp>eau>AN>d > >8w"q>󕌂Q_7>su,>><QH>e"Ԧ>ë>X>4kĽ?C%>)d1=zM7$>	k1e>Ւ2>}b<>*>fA$> KP>2M#	>iBsR>;6԰>Z(>^wD6>L/Xj>(w:W84C:!>uB0>C2^pmevG@!;׹`@΢L"QDN<@z[9q4%>%Z@$)It@d	@BYUadmf]b@gjYv*@C@WX@*Tr2ggR@u"QMrGetʿ,@Q6@/FB@NE%i3#PNm9)}紖@0@OXYF쿡u@-z@=RuY@d@(!\?q>!4V@Yd(bK)E]@T]-/u]@9M@ȹu4_@JYiibxs@	5Sv9w@L݈sAQ\Z@G{EC={MF@c(M@Bs?MI.G@B@WIB9T@m!@"@pW@ %DX@rO?iY?                                                                                                                                                                                                                                                                                                                                                                                                                                                                                                                                      ?        (%?;(-?'w޹?%ر~?vm`?7E(?Sb?,՟?ˇ<Ve?6s)?|Ia?Y>ػ?]9?c"?Z@?1v|-N?,H=|q??rcV<~e?8X?	  g?4?G$o~?a}Y9?FJYot?LiJ==?Wyr?)~.؀@?Z!3?÷j4?ɹ[643?+>3?๞.dn?ޙu	o7?ϓ [Uo?G9L6?#`ͫl?IV;4?Cdtt?S~cF`?	y?2<P_[a?(kI?A)Y?cCEM?.pY?>BJ?d+4r?	1?<RZ? WP?Qyo?[RfK?]c*?4u&0+?)%1?jxr?6R{NX?N??̩~
P?Atp,?)M?ͱ&L?wl=?+?<:G?iQ" H??o>i?d~O>ptu?"D>dS3	?˺
?Sz	?(77Q>C-E?OӷfC?ok? %9?2c?AK$?}R&?M{3?D߿4b?h J>rK!?a:[I?IM? G|#,-?mz*@}rVz|&)_\@0  @Y'3kf@=]{
9Sx:P龸@@@ېM#?AfH(@{a=9@ (?4c/
@gg٣)@>& A!.@2Aa0ׯ<@=+22Pc15^1,@;RL(@,o>3(1~^)@HTKC@vudmyظ^@6`wsʎ@<0Ġ0@+(q1tx!@_bB#@
f:+;@ I#_
!%Y6,MA@魲!m+mW2L"@kƄ';8d@C,@&o]"[IyG4*#S%@Oc8-5@-8#*]Է+@-".׮We%FN(P @                                                                                                                                                                                                                                                                                                                                                                                                                                                                                                                                      ?        Yq??ʮ4,V	5{?R4?SFo?z3ǭL?Fh?!Q?EEse?1B4|?rB_L?}m?,qO?`ڮg?*&*78zGZN6?#?{]G>70e	z]z?'pc?nwm?Yax0F?[o>WL6?D? lp1?a?Wu\Y>,Rm>g;>vˈ>/^B(?,\"?bu)?U?I$?oT>>"KFD?A~?3Ţa4?Ⱦ>? >%!?->*?W@V>ٯ(?Iy4? Qc?Aj?v CDdB>״.B?[+?DHUE?L!ao?(!>^납VG>_!`>=ov>*>H`>R`>x31>vm>>je>+r"1>۪>n"{>iw`$>W>#덨>"ش>[+a~>f	Up>$>B>+p?hD>
Uk> -Q> z>Z>z$->gĘꚒ>w/>CZ|	KZ+
?n,b1@kZ%U@Y}8]a/@
NM5r7E(h:8DnP@ \c~p@B8TSR``@&O=&R7Er"@Bq)U@>bHRL\R@Ĥ #_G,hL0@Ixzc@bM?`{}
-j~Q2{Z0a(<Zx\7@5}Ǽ13@u6`FWmb~]]	@BFj(@Nk5e"V@xIVG!@ZU;|M@vPI5@.gl
'i.L8{@7ߊ1q+,T@d9ZܬSZc@1N`!P@n5b;@jI:Y@f&	DVz.{1,|EeD@X3yKقR%@F[A'"@ti'@@xA	@#!^H׿-BS @}r%                                                                                                                                                                                                                                                                                                                                                                                                                                                                                                                                      ?        H&AO?BQ?l/X^?aڕSw?FkuY?)?	1vc?6Viē?Yh?)q.o?/,(`?!v}?P?:̹pĂ?,uF?jZވ?p1xg?ui?4O~Ḟc:U?w?$?2S[-?!w?1@|?\"wW3?fq?>?n?Μ:B?-"P(?].?t)3'?bBYQ,?¼<h?6?`f(`i? `h3?R-e-f?Tё.?iC]q?:V?P24?◟\?yi`>?V"P?KD?ًeN?x:C?xd ~?hA?ltQ?<YKO?6b?tA?*D?fdD?Z+\Gz?-&g?O+PU?oHIc??AoJ?*?)ԣF? )x?ҜY?q%ԟ?2oiB?skC?u~l?\~"g><KC>A>TF>F~%>d6?!8?+f
>H>]#cHd@?Z[m=?mW]f?aw0?C.9^^?p!;?	3?&?e)[?j3>\Bb?NSZe<?}@,xxw?I]u(]~1@468l-do3.@@q`@֟|Sԭ=ĸQ:@p4\"@E(g33\@L	1@0lǴC@Զ\@SlEAū"Oís걅:@rаM<ח6'F$@-a=C֐+uP)1A@B01$@Ic:Z!]a @426@0OW#XnqpBUmw %Le@2}nB@6ceRfR&*xI-@%>"3B1bڪ0	@Oʑ8@n뇷	|
2}==
/&h?V,@A]oL@1`7z?f$U@<հM0@ L @/-`4@O&9 |$Lj#@ж@@?Tk$0`@SJxp`3
mx\9@                                                                                                                                                                                                                                                                                                                                                                                                                                                                                                                                      ?        ַ?NY8?^drͶmSfL?17 ?w30m?A\G?컊qrd?*M?3z`?J6x`r?%={>|`Gi[? meWdJHR?Ii|Ÿ@4IB7Ċgik?ic?kJW>CxIK?sN/rFo$uJ?Dho>9	5?,l'?cRv.?ۤ֌?{q[>dpS `Z,-ډ
>(ak?*Ϯ"?s{>#?C>#1-?Nwv>e~a;?3FȽ>͝돀$?Ej֞N5]dy>2}P->>&@>GWD>VU&?HZ&? ʏ:u>'*U?h>XJ.J3֐uȾͺ
U,?`ď>g1Ү>,?_ t>CF:3 ?t>DkF>W`>Y#2mW>{>}>d^TP>vt>):>>:mUF>1>G >lPtT7U~>g^BuhW>wB>P>n٤e?;0>">F"h`>ɫƞ>7Q>{>9V|>ԮzQ>EEޅ>+X )@==zV
@48$[ޛs{@zᄨ!@sq6?MQsR3bg l"0@DN"@71#v܆0$}W@B7ȅ2 @;䔻23@̭d@1qU'@@և)XBL28<&64@8ʉ"@Y,,dF$.E@k@g

0@zw?buH#4wzKT<
@^@6}??zom$"'fM>d@yDQTa,@ȯj2h%@ڬ1$<%74@,KA@aL2!ʌ' +Ƅ%@lۭ#23Tk"@V5G80@DO݉7AHDmv<"@	0@Y,%YUy3@}7'YTn 2 V;@                                                                                                                                                                                                                                                                                                                                                                                                                                                                                                                                      ?        ?˰?Zi?-w/E1?{U7q?wˀ7>2`ϕg?3.ZJ?{,)0e?)?`Sd?axN|c?8FX@T?b8?7Q?~ͧdXn^2>w[V*8UrJG?BU?;z&>,C?԰BgVO2?UD>qv((?!a">W׎&?h>UMًL>=)7}!>0r*lv#D>e"?N,׷>Xh#?Ki>NU!?l>Hl>Us$?}c?oը><nP><tw>x>><ZD(csQ.~> ܒ?}i]?JApτ!>mbĜ%.^o>Yzy2f?8w b>Q<VYj>m_G>X>`f>E4>+2)>d=WT>s4ǽw/>e^>׋z>|%)bTb_1=Ar"=0N=7E=n@P>{hAqF?>Bkb>tg=6b>AW>CCv>W~$wʄ>	e>ԕb9>R_2x䴤»>Ձ܇3yK%~ >)/ X";U>0o"@r?l~
ƻ.[g
@	 +@qq&63Y͟@I<6@C~|V$QSNg=".@턋/@/^Od',f0ιʸ@F)o?u}yXNhU@a)6x[n`8v,a<1@E[@# ZWbJZ@JX=%W@2'@=R"X3JaH!@yg{--.~ Ei?6م!D.7`L&@=,A@K9D)"@q4~%P?t|p;@%^"R@i#M%@s,(<D`@߸x@3~(Q$'DCcITY&@T-@e+Qw-@կa%kT;Y0@                                                                                                                                                                                                                                                                                                                                                                                                                                                                                                                                      ?        ?kґB?Ypʺ?5^q?*7;? me?BնiC?B?!a?frG?;/6_?/Wg\k?5C?DWS]?ӋW6@D?ߗSW?  c<f-?2`[T?Ƈre?VcjO?'U?{^ӿc2?>A>	%?}?56B"? @?q>1>p]|P>l>fd?)V>Lm?>VH?B˹>%Z,?{@?Cl?lhFK?^fV>wإ>:A>,%>#">S:?ՇN!?,>0'22D ?-PzoU$ë>E	s&?eI^+?GaS>zV]>A p>N(>ƃPG>Pڒ*I>fd>">:	>`>dU>dk>f	>!Gѫ>qQu>I>]?ڍҡ>9ߟ/>V!s>r߱>Ig>(Qts̐>*Mh>,ay>>B">9>o$>MKQ/>a/>ې>'8S,>nIQ>P/^Cfd>Pě=fmZi)@@GX@)k6G)-Ö8@SW8^8:oT@zr@5V0Oaα+o@`@odX$><D@XS@9elj!R@9W"$<GPG_.@qhiR@g
dt@H236g4vH:羚R@vn}1@L/.Ȏ*6:A]@+Y@t[pڴ_@0${~R@XX{PQ@ߌ"R=KP@M9@[rtO&_@Mߤf`{n@uzoq@DHojpIZ@ƫE֥"ʃ<8j<I@GIȑBN7@c6:
J@xq,s"@+E$@:Qsn@*ܽ#!w@k?c@8|>                                                                                                                                                                                                                                                                                                                                                                                                                                                                                                                                      ?        eL"Q?gt?;Q?{6`?6]?5?Rc?N_?,f?vLp?p6]?%~ڂ?6 '̭?aZ?2nΪ? ˂樒?!:?p?
ڞ"Z?a8㑿Nn?($?*A}?M_"?(~?Q7?'R#s?⽙>?9`p?_ ;A?Je0?0Ea2?㑷R/?P1?Lk?bd'7?VmDl?.^5?ʩ5OAi?`1?,p?RW]?1d]h0?yڢ'a?͑eE?	V?"-I? PcU?0PG?l`M突?^E?汨QW?)HʓP?Ґ
m?;J?Z*xs&?'|K&U?ڑIM?ؼ':-p?}=xW?is	%?}M?V@f?(q5J?*	?qv?~V8/?Vw>E?(`3F?0?m{N>?731k>V4?Yϭ>}I?5+{?ja0?dg	<>s#B? OA?q0i?W|6?П<b?k ?v$?0?vNMk`?+O>d?kF?<I,8|?ɨX/.@ᖪ?[ٴ<|TMl@H[fj?@Lxڿi| >Yv=T>9@HSUMa4_.@y5T5@(5K$+k浚@@h֝?{R<<%3V?wm7@_#o>9|+l])@ܝ+At 4j=@8m)^#8R!j$@/a9@9Y)U0@IGԾ*)' @8o'K;Kz@jh-@^O'w$A	@qTP5@_pɢ\	@gx!RI2 93@YU[I@,>'3K80@Ric2L?s @5ϗH08@R!4?DtrIթ&@^hJ9@pE4m0v2@[!{[82Y?@                                                                                                                                                                                                                                                                                                                                                                                                                                                                                                                                      ?        !|?~B(*$?2P?*z^g=?Dv#?EkZn?&eK?[ͣ1of?P?4lc?[B/s?am٢
?I_? @c/>*PqV?z=_"+Obؒa@-~`Ze?1'O>YQrP?3ȭmN<.NI??tC>Z/c6?.V?ow0?Wb?v1l%Ю>@>ZÅ]Ev>16:>aKև$?a{?5c$?38?ђ?cG>/oG*<?-ӌ>Fz('?6uf>oRj>^!>Zm0>;L>nM.O>0OJQ?I@(?ܾ>a)?$CaY.޾'V.hY/?aqn+>=-j>K9-ɒ?%q<>3@n ?O@/>|,>1~v> Cq>W5>3?#>s"k>Ɵ)>+lϰv0>gV>bL>cCP>m4f<>ť>LT&>q_D_>N^z>:->/Y>A]V?&Ų>7 .Q>B^vv> d)>R5ݾMc>f1-iJ>ۓ5A9>b)+i>6.>PQ	@q\5)@Ѩ{B~÷i4
(=Nn? F@ݒ ?F٬(Ɍd?"@j	@6α '俧~@tb'B~a*@ſF?]E%۟0s"Z@ e?j̡dDB0M?q*. ؘx(@`;8@TzgDlc@2_'de@~:ư@,1;Rh|KWE0d1\ @@|<D7Qb@H(y!@tLT$H&/k5@Y E4T|h+,@=@\Dt"%NU#v^+@竾b6OH
@K)2G6@pp2XhRAEG$@<x&@F
nB.N9@}9*>w4@                                                                                                                                                                                                                                                                                                                                                                                                                                                                                                                                      ?        i-aЫ?
?F)ɖ?,h?_8>DLsd?Ve@>);Xc?%W>ѱSN4c?Tp~S?	>$J?d7?f>9EBܻG?6H4XRl>cM)S?]7>?ǃ>[3?eD4=X%?&f3><s!?x<ґ>$	!?(>;;Rq>xyOdG>vŷe>R,|>Wdg?瞴;>+"@ ?(;>fpXY%? ,Plt>
?mh>4MY?9iJ"x>ohP>e>	RKv><|Qu>@'`h#b>@n(w??zH8U>|65-|>i`K$~fu2C>
"ޔ>ܙ{>4sC>NH>W/c>4xN>ɫBL>:S.>h0;>Z{">p'ծ>{l=@>GѰs@>
5o=RtɅ*>fʶr=r+B(>Sz@O=O;8>
O<D>/ok7>@ʴ=x$}#>]>g>^M>^!.&>y>F`3>"K2>4m>/=W@>%&շ˾cWԶ>=nlyX)oA@G?`@Jc4Gٖj!@
<ـ(ɤWV@yt@j _SoQe.ᘃ]@Y՞WMPqEA@R@\U_d+4Q@HGh\D<F'Ctq'@~;@ѭ@9|1r'<s1I͕@J@c2@Ӹ
dޖOו	@*.@<kM`t#_`@3=@γSP@=Xct6@t@6\%@9nd_@P)OursR@CUe5#bRg@δJ Rbe]`@-S@N^2X@F BZ^#ȍ?}9W({ID@'e52@Tm7_oA"@[\%@E\%@{"<#BK%u
@-j                                                                                                                                                                                                                                                                                                                                                                                                                                                                                                                                      ?        X#Pk?>?rd92S޵?]Iډ9񳢢?rl$_?Xo{?pGb?b.?`ՌCd?Z??DV?h;?ś15-?D-?g<?Z:?,t<0e?2?aJ)11?V0?ve?G6?ZSKq|?/h1	8?2vr?rwX;?Pl wo?"л|y??p~hAW/?1?4Bƪ+?1/?Fi?͑54?<qk?<Tv3?,躮g?i.?z4&d	?n  5MZ?	"~?,rE]?28D?!S?pD:J?eLR?{F?g_h?\"?PS?InN?#J~xi?6G`+@?<iC%?^v?bwI}?!=l?ԢIcU?}BW?ŀǜK?d+?|nH??JI
?Gv?jomC?쎥D?Fl?ЎTI(>!rE?aO >RD PhJ?w
 jI>¼?`U?BQoB? چ>P=IA?J???0Սg?H4?6h`?Y?0$?6Z}k +?o	ſ!^?4>?[oC?+y?1nN+*"6#
(*@?c^߿75+y&F@*2cћ#@]r)&wo41A&q @0υD@'g-!qЛ+@*r{?z;E3@t
@kIh
M/(	=*jl&@Qп 
F$\3L@ȊT(;;*LrSj5m6@G@M	/ )?R/,@*.B}:#W:~e"@o/;&(@s*(wW'@h5;J-JaHa3@h})QU|8xw1&@P@BW,^ pU\B@&8)ǧ<@(nߠ mۅ&2mX}@Y.??F?  lp@3T!PqJDW&-@J:@GI;
ϳ"D_HXseb&@                                                                                                                                                                                                                                                                                                                                                                                                                                                                                                                                      ?        m<@)Ψ?+?^Eubp~Qc4;c?6?w)U?2K<?^8Q?]\/4=?(NFUM?Sk2GV?n?rtF?r2?ȭ@?Lidq ?!ֶ<Sb/IRJ?'@?5H}8?	h#^g*4?F/>@Ǚ?Jr>ՀQU
??׽>vEְ>,*>0sd> :>ٷ-o?`)JU>Ӥ+?v_>9?
mD >>k?F:]>|Eů?<o?w>nD>)
+>?*>>dċ>Db\>(Xc?`d>j|v>i#AM3>4m!*0?u3>]dB=>E~w>">f51> $[>IoӐ>hП>m2_>ǄW(>$g>z>,m_ǥ>POz>A+ݓ>yv>C%>"T`~>6>$ٔ>/>KMK>0*>%Q>r.>(=a> ҁh>.q
vrC>kɳބ8>kWZ>o>]e>ѷA]>Z޾_"э>ަdE^c+>@<oQW@P	yEZr}3@$
6B!8%+lu+7S@96r@.xUFvI2Yb7?_@֬6j^bSԏ:>@>0P@`JedEWR@
TR#κGN`"6].@)X@gID@T1M\iM2i_6;&Wc@x1@77$4ܫI
忙=' 6@7f||@ioe|]@mz}bO@5oVrZtO@]QL){.A@UMIή@N rStH;V@H˥a7\j@v(kKjJsg@j*Z0"Z@W&JE~&}BX7yG>yG@@w)@K&U[w@r(R"@cMc%@uM6@|?`m#Z% @ :́@bJ/M                                                                                                                                                                                                                                                                                                                                                                                                                                                                                                                                      ?        )?U{?ԩд?1_߳?(>b?sT?_ȾZOj?=] ?")/%p?)Ē?ZMa ?7?Y?ѣE_?xo}(ը? *?n?H%kF?s}j_-?P#4?=ax?+g}L?n$<Q}??d <?OlHr?-?sIHD?ko?闙ӊpI?̠90?BR5?SQh0?9L\,3?ei?b,*%>?Ej?j:?2Uog?"4?ǰ7?zu
?^?ᖅ?_?3b?f;E?f.V?HWRN?2JNT? 9; {K?Md(B?+tݵ?3%NW?WU7[U?>h?{h4G?%*'?%˶N	?c%x??z6)Np?/PV?u>K?t(0L?SPD?oGDbH?jf*
?'l)_?W[?avC?s8D?LPv?1TD>&<E?QMw>ҽ??D.O>|.|	?I2Ե
?.w,=?]y%U>.T+?A?0m٧??>)]h?7UntQ7?F`? k5" ?HKE_'?t6O/?w$kc^?PC^>?<Z5?RC?W Dz?W/cjXۓA@F^@L*簏[IhM"@|VH6_|'6y/U@,s@Vz7cdϤCL`@xRb8C@@f8u,R@8ҳeVe~CR@C"1xGYY.@TrEA;@gd|a?IoYRXK.1-3{; V@޴81@kmjӏ׿[BL@"@Νr,/`@E1@K7P@j|hZ":vJ@~ʞ7n5@ Z?@ HTsgzU@Ab~<Lk@&$ChA`5d@Ta*3CVۣY@ C<'&,8#˜F@#v[m>ͰP%@xYBGAϹ"@Q5SD%@}@
@\xHP#AT>\" @k"q@&Ͻ                                                                                                                                                                                                                                                                                                                                                                                                                                                                                                                                      ?        ^? ?/I/K?Y\㳿5?+ޣ[?;2Wᒘ?F`?^v?pRPb?n?vH=˴?@5?9o?Ѓ;4?"el?DYNe?9#eCh?׌7?MR[^T4?>Wu&?ܒB((??,9}?}H5?Ubr?18?5p?5<?GZ/?Λ}o0?*,?Z;;%/?|LiUk?"V3?(&l?+C2?Bti?F/?52!=?.pޫY?K=?	\?UC?IgS?RG?cF6)S?D?Up?iz?Y9GS?!K?uAi?.NXC?*{d"?Bq?0w*	?-gk? jV?7c?Ƣ$M??ajY? hJ?i[#?$	?S#B?C'$<E?dE?86!?GQrZ[>?>!y?,qD>`X7?9?ޙ?q'>&B?,VSA? ][h?^~3?O9bta?"	d?$!?O-?`osL_?{eC>*~9?$ԌrC?eM.{?Q @Zcꚙ?7CKcܿ,f;@M.г/!@?pP;;4ۿxvuP9@r",}9j6bۀ0@Jy;`o7@w|" Zy\<@yGȶm?}:^sw @qL8@-:!n:8] @W=bԿ%S;@זGRji/9czn;@=
Tg9@cBWҙ W0@z":$t/ƛ$@F)ߨ#\elV&s7,@Ɔ#oBɫ'@}w ̖3@Ws(%F,	(@zUO8nU55UР5@,-3F@vp*&Jz9>5?ٽ 3@$8Á2r?d2?@:NGwFBk'@sٖ6@]t)E4Ae`3@+vm)lJ@h;@                                                                                                                                                                                                                                                                                                                                                                                                                                                                                                                                      ?        ?˂?(OZyF?Ǫi'ox?Os?[h?#sI?]:[b?v]A,P?ocsę_?[js*>d?A?@gES?:D>TkEeL?1`Epf[[g:3Wt3*P??aU͢)??W<[-7^ >?r".>RK.?Q?E>&?Gw?,nB<>|Ӏ{>1hl>>糔/>$?%+2>1?>`{?>]>ۅu-)?쿸>+s?9&(w>73Su>;on >[f
>bu>m;/k+?C?[;o#>F~>6J4[CpؾHO!¾t,gT?]>AEb>&,%?L_g>'>kG>W-f>3{>8 0b>?"MYmt>l쾲>?vV>ʬdŨ>%S4>rh>W>Df>j͵U>ˏ\~!0~>>N>ՅSa>L>J1VG>\VaP>-1ȑ>8>b$Rb>E9i{>Xo-}>	>y.	">r3f>v*9<3\>> 5-,?Jc3@x<HȎCe11n%@r!/@-_fk*%yJ!v1?@z@{<?nT7@3g@>8LF)1=@пD8hl{@QS$r2@5FD.B8Q=1N=K4@ˑjBcMG	?@@AՑo'7}!V3@#VV6@t9U=f ^:F%[@m~*f*@r\%0U4@Ptq'~%D-@$~Cfe`b<!$!@|B:@T,($&.l'5@"=Mfi?_cY)"+4C@xZYQ\~.534&@*r_#G̼7?735*@p]$\|HE @-L9@z{+'|p&@$2r?
